<?xml version="1.0"?>
<opencv_storage>
<opencv_ml_svm>
  <format>3</format>
  <svmType>C_SVC</svmType>
  <kernel>
    <type>RBF</type>
    <gamma>0.5</gamma></kernel>
  <C>2.</C>
  <term_criteria><epsilon>1.1920928955078125e-07</epsilon>
    <iterations>1000</iterations></term_criteria>
  <var_count>433</var_count>
  <class_count>2</class_count>
  <class_labels type_id="opencv-matrix">
    <rows>2</rows>
    <cols>1</cols>
    <dt>i</dt>
    <data>
      0 1</data></class_labels>
  <sv_total>55</sv_total>
  <support_vectors>
    <_>
      0. 0.00187519868 0.000416710827 0.00125013245 0. 0. 0.
      0.00875092763 0.0164600778 0.00187519868 0. 0. 0. 0.00208355417
      0.00229190965 0. 0. 0. 0. 0. 0. 0. 0. 0. 0. 0. 0. 0. 0. 0. 0. 0.
      0. 0. 0. 0. 0. 0.00375039736 0.00875092763 0.0106261261
      0.00104177708 0. 0. 0.0885510519 0.151474386 0.0395875275
      0.00416710833 0. 0. 0.0766747892 0.0452131256 0. 0. 0. 0. 0. 0. 0.
      0. 0. 0. 0. 0. 0. 0. 0. 0. 0. 0. 0. 0. 0. 0. 0.0052088853
      0.00833421666 0.00541724078 0.00312533113 0. 0. 0.0052088853
      0.000833421655 0. 0. 0. 0. 0.00145848794 0. 0. 0. 0. 0.
      0.000625066226 0.000416710827 0. 0. 0. 0. 0. 0. 0. 0. 0. 0. 0. 0.
      0. 0. 0. 0. 0.000208355414 0.00416710833 0.0035420421
      0.00416710833 0. 0. 0. 0.000416710827 0.000208355414
      0.000208355414 0. 0. 0.000208355414 0.000625066226 0.
      0.000208355414 0.000208355414 0. 0. 0.00125013245 0.00125013245
      0.00104177708 0. 0. 0. 0.00270862039 0.00250026491 0.000208355414
      0. 0. 0. 0. 0. 0. 0. 0. 0.00125013245 0.00750079472 0.0727160424
      0.0375039726 0.000416710827 0. 0. 0.000416710827 0.00916763861
      0.0170851443 0.00125013245 0. 0.00229190965 0.000625066226
      0.00562559627 0.0150015894 0.00145848794 0. 0.00312533113
      0.00104177708 0.00375039736 0.026252782 0.00395875284 0.
      0.00166684331 0.00479217432 0.00395875284 0.00208355417
      0.0145848794 0. 0. 0.000208355414 0. 0. 0.0175018553 0.
      0.000416710827 0.181685925 0.772165179 0.328784853 0.00312533113
      0. 0.0108344816 0.0831338093 0.0372956209 0.0035420421 0. 0.
      0.000833421655 0. 0.00208355417 0. 0. 0. 0. 0. 0.000416710827 0.
      0. 0. 0. 0. 0. 0. 0. 0. 0. 0. 0. 0. 0. 0. 0.000416710827
      0.113553703 0.171476498 0.145848796 0.0204188302 0. 0.00208355417
      0.211480752 0.268361777 0.101052374 0.000625066226 0. 0.
      0.0185436327 0.105427839 0. 0. 0. 0. 0. 0. 0. 0. 0. 0. 0. 0. 0. 0.
      0. 0. 0. 0. 0. 0. 0. 0.000416710827 0.000208355414 0.
      0.000208355414 0. 0. 0. 0.00166684331 0.00270862039 0.00583395176
      0. 0. 0. 0.000416710827 0.0443797037 0. 0. 0. 0. 0. 0. 0. 0. 0. 0.
      0. 0. 0. 0. 0. 0. 0. 0. 0. 0. 0. 0. 0. 0. 0. 0. 0. 0. 0. 0. 0. 0.
      0. 0. 0. 0. 0. 0. 0. 0. 0. 0. 0. 0. 0. 0. 0. 0. 0. 0. 0. 0. 0. 0.
      0. 0. 0. 0. 0. 0. 0. 0. 0. 0. 0. 0. 0. 0. 0. 0. 0. 0. 0. 0. 0. 0.
      0. 0. 0. 0. 0. 0. 0. 0. 0. 0. 0. 0. 0. 0. 0. 0. 0. 0. 0. 0. 0. 0.
      0. 0. 0. 0. 0. 0. 0. 0. 0. 0. 0. 0. 0. 0. 0. 0. 0. 0. 0. 0. 0. 0.
      0. 0. 0. 0. 0. 0. 0. 0. 0. 0.000416710827 0. 0. 0. 0. 0. 0. 0. 0.
      0. 0. 0. 0. 0. 0. 0. 0. 0. 0. 0. 0. 0. 0. 0. 0. 0. 0. 0. 0. 0. 0.
      0. 0. 0. 0. 0.0723876953</_>
    <_>
      0. 0. 0.00334305572 0. 0.00125364587 0.00167152786 0. 0.
      0.0139990458 0.00877552107 0.00229835091 0. 0. 0. 0.00104470493
      0.00104470493 0. 0. 0. 0. 0. 0. 0. 0. 0. 0. 0. 0. 0. 0. 0. 0. 0.
      0. 0. 0. 0. 0. 0.0108649312 0.00898446236 0.0127454 0.00334305572
      0. 0. 0.164645493 0.123902 0.0346842036 0.00543246558 0. 0.
      0.0442954898 0.00605928851 0. 0. 0. 0. 0. 0. 0. 0. 0. 0. 0. 0. 0.
      0. 0. 0. 0. 0. 0. 0. 0. 0.000208940983 0.00982022658 0.00292517385
      0.00501458347 0.00501458347 0. 0. 0.00438776053 0.00835763942 0.
      0. 0. 0. 0.00417881971 0.000417881965 0. 0. 0. 0. 0. 0. 0. 0. 0.
      0. 0. 0. 0. 0. 0. 0. 0. 0. 0. 0. 0. 0. 0.00125364587 0.00334305572
      0.00250729173 0.00731293438 0. 0. 0.000208940983 0.00208940986 0.
      0. 0. 0. 0.000208940983 0.000208940983 0. 0. 0. 0. 0. 0.
      0.00229835091 0.000417881965 0. 0. 0. 0. 0.00334305572
      0.00961128529 0. 0. 0. 0. 0. 0. 0. 0. 0.000835763931 0.00793975778
      0.0277891513 0.0839942768 0. 0. 0.000417881965 0.00146258692
      0.00961128529 0.028207032 0. 0.000626822934 0.00522352476
      0.000208940983 0. 0.0125364587 0. 0. 0. 0. 0.00773081649
      0.0336394981 0. 0. 0. 0. 0.00292517385 0.0334305577 0. 0. 0. 0. 0.
      0.000208940983 0. 0. 0.00208940986 0.242371544 0.586915195
      0.596317589 0. 0.000835763931 0.00793975778 0.0346842036
      0.0313411467 0.00334305572 0. 0. 0. 0. 0. 0. 0. 0. 0. 0. 0. 0. 0.
      0. 0. 0. 0. 0. 0. 0. 0. 0. 0. 0. 0. 0. 0.000835763931 0.151273265
      0.123275183 0.215836033 0. 0.000417881965 0.00271623279
      0.186166421 0.204762161 0.113037072 0. 0. 0. 0.0139990458
      0.0702041686 0. 0. 0. 0. 0. 0. 0. 0. 0. 0. 0. 0. 0. 0. 0. 0. 0. 0.
      0. 0. 0. 0.000626822934 0.000208940983 0. 0.00146258692 0. 0. 0.
      0.00104470493 0.00355199678 0.00689505227 0. 0. 0. 0.000835763931
      0.0401166677 0. 0. 0. 0. 0. 0. 0. 0. 0. 0. 0. 0. 0. 0. 0. 0. 0. 0.
      0. 0. 0. 0.000208940983 0. 0. 0.000626822934 0. 0. 0. 0. 0. 0. 0.
      0. 0. 0. 0. 0. 0. 0. 0. 0. 0. 0. 0. 0. 0. 0. 0. 0. 0. 0. 0. 0. 0.
      0. 0. 0. 0.000208940983 0. 0. 0.000208940983 0. 0. 0. 0. 0. 0. 0.
      0. 0. 0. 0. 0. 0. 0. 0. 0. 0. 0. 0. 0. 0. 0. 0. 0. 0. 0. 0. 0. 0.
      0. 0. 0. 0. 0. 0. 0.000417881965 0. 0. 0. 0. 0. 0. 0. 0. 0. 0. 0.
      0. 0. 0. 0. 0. 0. 0. 0. 0. 0. 0. 0. 0. 0. 0. 0. 0. 0. 0. 0. 0. 0.
      0. 0. 0.000208940983 0. 0. 0. 0. 0. 0. 0. 0. 0. 0. 0. 0. 0. 0. 0.
      0. 0. 0. 0. 0. 0. 0. 0. 0. 0. 0. 0. 0. 0. 0. 0.0924682617</_>
    <_>
      0. 0. 0.000611602096 0.000611602096 0.00020386737 0.000815469481
      0. 0. 0.00489281677 0.00652375584 0.00020386737 0. 0. 0.
      0.000611602096 0.00020386737 0. 0. 0. 0. 0. 0. 0. 0. 0. 0. 0. 0.
      0. 0. 0. 0. 0. 0. 0. 0. 0. 0. 0.00815469492 0.00897016469
      0.00917403121 0.00407734746 0. 0.000611602096 0.15758948
      0.123951361 0.0371038616 0.0055044191 0. 0. 0.0664607659
      0.00203867373 0. 0. 0. 0. 0. 0. 0. 0. 0. 0. 0. 0. 0. 0. 0. 0. 0.
      0. 0. 0. 0. 0.00020386737 0.00795082748 0.00448508235
      0.00591215352 0.00346574537 0. 0.00020386737 0.00468894932
      0.00672762329 0. 0. 0. 0. 0.00326187792 0.00020386737 0. 0. 0. 0.
      0.00020386737 0. 0. 0. 0. 0. 0. 0. 0. 0. 0. 0. 0. 0. 0. 0. 0. 0.
      0.00244640838 0.00183480629 0.00448508235 0.00489281677 0. 0.
      0.00020386737 0.00183480629 0. 0. 0. 0. 0.00101933687
      0.00040773474 0. 0. 0. 0. 0. 0. 0.00163093896 0.00020386737 0. 0.
      0. 0. 0.00366961258 0.00795082748 0. 0. 0. 0. 0. 0. 0. 0.
      0.000611602096 0.00530055165 0.0309878401 0.0858281627 0. 0. 0.
      0.00122320419 0.00958176609 0.0275220945 0. 0.00040773474
      0.00509668421 0.00040773474 0. 0.0124359094 0. 0.000611602096 0.
      0. 0.00652375584 0.0309878401 0. 0. 0. 0. 0.00407734746
      0.0358806588 0. 0. 0. 0. 0. 0.00020386737 0. 0. 0.00040773474
      0.256872892 0.586118698 0.61955291 0. 0.00163093896 0.00937789865
      0.0475010984 0.0220176764 0.00040773474 0. 0. 0. 0. 0. 0. 0. 0. 0.
      0. 0. 0. 0. 0. 0. 0. 0. 0. 0. 0. 0. 0. 0. 0. 0. 0. 0.00142707163
      0.151065722 0.0978563353 0.171656325 0. 0.00020386737
      0.00387348002 0.166967377 0.192043066 0.102137551 0. 0. 0.
      0.021813808 0.0846049562 0. 0. 0. 0. 0. 0. 0. 0. 0. 0. 0. 0. 0. 0.
      0. 0. 0. 0. 0. 0. 0. 0. 0. 0. 0.00040773474 0. 0. 0. 0.
      0.00305801048 0.00815469492 0. 0. 0. 0. 0.0252795536 0.00040773474
      0. 0. 0. 0. 0. 0. 0. 0. 0. 0. 0. 0. 0. 0. 0. 0. 0. 0. 0. 0. 0. 0.
      0. 0.000815469481 0. 0. 0. 0. 0. 0. 0. 0. 0. 0. 0. 0. 0. 0. 0. 0.
      0. 0. 0. 0. 0. 0. 0. 0. 0. 0. 0. 0. 0. 0. 0. 0. 0. 0. 0.
      0.00020386737 0. 0. 0. 0. 0. 0. 0. 0. 0. 0. 0. 0. 0. 0. 0. 0. 0.
      0. 0. 0. 0. 0. 0. 0. 0. 0. 0. 0. 0. 0. 0. 0. 0. 0. 0.
      0.00020386737 0. 0. 0. 0. 0. 0. 0. 0. 0. 0. 0. 0. 0. 0. 0. 0. 0.
      0. 0. 0. 0. 0. 0. 0. 0. 0. 0. 0. 0. 0. 0. 0. 0. 0. 0.
      0.00020386737 0. 0. 0. 0. 0. 0. 0. 0. 0. 0. 0. 0. 0. 0. 0. 0. 0.
      0. 0. 0. 0. 0. 0. 0. 0. 0. 0. 0. 0. 0. 0.0955810547</_>
    <_>
      0. 0. 0. 0. 0. 0. 0. 0.00035375412 0. 0. 0. 0. 0. 0. 0. 0. 0. 0.
      0. 0. 0. 0. 0. 0. 0. 0. 0. 0. 0. 0. 0. 0. 0. 0. 0. 0.
      0.00017687706 0.00035375412 0. 0. 0. 0. 0.00265315594 0.0015918935
      0.000530631165 0. 0. 0. 0.00247627893 0.00336066424 0. 0. 0. 0. 0.
      0.00017687706 0. 0. 0. 0. 0. 0. 0. 0. 0. 0. 0. 0. 0. 0. 0. 0.
      0.00229940168 0.00406817254 0.00017687706 0. 0. 0. 0.00336066424
      0.000884385314 0.00017687706 0. 0. 0. 0.00106126233 0.000707508239
      0. 0. 0. 0. 0. 0.00106126233 0. 0. 0. 0. 0. 0. 0. 0. 0. 0. 0. 0.
      0. 0. 0. 0. 0.00141501648 0.0109663773 0.000884385314
      0.00035375412 0. 0. 0. 0.00141501648 0. 0. 0. 0. 0.00123813946
      0.00035375412 0. 0. 0. 0. 0.000884385314 0. 0. 0. 0. 0. 0.
      0.00017687706 0.00194564764 0.00017687706 0. 0. 0. 0. 0.
      0.00406817254 0. 0. 0.0015918935 0.0440423861 0.0514712259
      0.00459880335 0. 0. 0.00017687706 0.00972823799 0.0155651812
      0.0113201318 0. 0. 0. 0.00265315594 0.00406817254 0.00123813946 0.
      0. 0. 0. 0.0247627888 0.00725195929 0. 0. 0. 0. 0.00937448442
      0.0332528874 0. 0. 0. 0. 0.00017687706 0.00742883654 0.00017687706
      0. 0.00035375412 0.352692842 0.561407804 0.0277696978 0. 0. 0.
      0.110017531 0.122752681 0. 0. 0. 0. 0.00176877063 0.000530631165
      0. 0. 0. 0. 0.00035375412 0. 0. 0. 0. 0. 0. 0. 0. 0. 0. 0. 0. 0.
      0. 0. 0. 0. 0.165026292 0.551148891 0.00778259058 0. 0. 0.
      0.222511336 0.371088058 0.000884385314 0. 0. 0. 0.0367904268
      0.0746421218 0. 0. 0. 0. 0.000884385314 0. 0. 0. 0. 0. 0. 0. 0. 0.
      0. 0. 0. 0. 0. 0. 0. 0. 0.000530631165 0.00141501648 0. 0. 0. 0.
      0.00017687706 0.0061906972 0. 0. 0. 0. 0.00017687706 0.00283003296
      0. 0. 0. 0. 0. 0. 0. 0. 0. 0. 0. 0. 0. 0. 0. 0. 0. 0. 0. 0. 0. 0.
      0. 0. 0. 0. 0. 0. 0. 0. 0. 0. 0. 0. 0. 0. 0. 0. 0. 0. 0. 0. 0. 0.
      0. 0. 0. 0. 0. 0. 0. 0. 0. 0. 0. 0. 0. 0. 0. 0. 0. 0. 0. 0. 0. 0.
      0. 0. 0. 0. 0. 0. 0. 0. 0. 0. 0. 0. 0. 0. 0. 0. 0. 0. 0. 0. 0. 0.
      0. 0. 0. 0. 0. 0. 0. 0. 0. 0. 0. 0. 0. 0. 0. 0. 0. 0. 0. 0. 0. 0.
      0. 0. 0. 0. 0. 0. 0. 0. 0. 0. 0. 0. 0. 0. 0. 0. 0. 0. 0. 0. 0. 0.
      0. 0. 0. 0. 0. 0. 0. 0. 0. 0. 0. 0. 0. 0. 0. 0. 0. 0. 0. 0. 0. 0.
      0. 0. 0. 0. 0. 0. 0. 0. 0. 0. 0. 0.0286865234</_>
    <_>
      0. 0. 0.00063335814 0.000158339535 0.00031667907 0. 0. 0.
      0.00237509306 0.00427516736 0.000791697646 0.00031667907 0. 0. 0.
      0.000791697646 0. 0. 0. 0. 0. 0. 0. 0. 0. 0. 0. 0. 0. 0. 0. 0. 0.
      0. 0. 0. 0. 0. 0.00158339529 0.00253343256 0.00221675355
      0.00253343256 0. 0. 0.00348346983 0.0209008195 0.0182090458
      0.00870867446 0. 0. 0.000475018605 0.00269177207 0. 0. 0. 0. 0. 0.
      0. 0. 0. 0. 0. 0. 0. 0. 0. 0. 0. 0. 0. 0. 0. 0. 0.00063335814
      0.00142505579 0. 0.00174173492 0. 0. 0. 0. 0. 0. 0. 0.
      0.000475018605 0.00031667907 0. 0. 0. 0. 0. 0. 0. 0. 0. 0. 0. 0.
      0. 0. 0. 0. 0. 0. 0. 0. 0. 0. 0. 0.00063335814 0.00031667907
      0.00174173492 0. 0. 0. 0. 0. 0. 0. 0. 0. 0. 0. 0. 0. 0. 0. 0.
      0.000950037211 0.00031667907 0. 0. 0. 0. 0.00031667907
      0.00475018611 0. 0. 0. 0. 0. 0. 0. 0. 0.000158339535 0.00380014884
      0.010925428 0.0647608712 0. 0. 0.000158339535 0.000475018605
      0.0120338043 0.0150422556 0. 0. 0. 0. 0.00205841404 0.0137755396
      0. 0. 0. 0. 0.00300845108 0.0300845113 0. 0. 0. 0. 0. 0.0254926644
      0. 0. 0. 0. 0. 0.000158339535 0. 0. 0.000158339535 0.0357847363
      0.67658484 0.478185385 0. 0. 0. 0.00380014884 0.0315095671
      0.000950037211 0. 0. 0.000158339535 0. 0.00221675355 0.00031667907
      0. 0. 0. 0. 0. 0. 0. 0. 0. 0. 0. 0. 0. 0. 0. 0. 0. 0. 0. 0. 0.
      0.0318262465 0.495602757 0.136330336 0. 0. 0. 0.021850856
      0.119071327 0.13997215 0. 0. 0. 0.000158339535 0.0318262465
      0.0272343997 0. 0. 0. 0. 0. 0. 0. 0. 0. 0. 0. 0. 0. 0. 0. 0. 0. 0.
      0. 0. 0.000791697646 0.000475018605 0.00031667907 0. 0. 0.
      0.000158339535 0.000158339535 0.00380014884 0.028976135 0. 0. 0.
      0. 0.0194757637 0.0376848094 0. 0. 0. 0. 0. 0. 0. 0. 0. 0. 0. 0.
      0. 0. 0. 0. 0. 0. 0. 0. 0.000158339535 0. 0. 0. 0. 0. 0. 0. 0. 0.
      0. 0. 0. 0. 0. 0. 0. 0. 0. 0. 0. 0. 0. 0. 0. 0. 0. 0. 0. 0. 0. 0.
      0. 0. 0. 0. 0. 0. 0. 0. 0. 0. 0. 0. 0. 0. 0. 0. 0. 0. 0. 0. 0. 0.
      0. 0. 0. 0. 0. 0. 0. 0. 0. 0. 0. 0. 0. 0. 0. 0. 0. 0.
      0.000158339535 0. 0. 0. 0. 0. 0. 0. 0. 0. 0. 0. 0. 0. 0. 0. 0. 0.
      0. 0. 0. 0. 0. 0. 0. 0. 0. 0. 0. 0. 0. 0. 0. 0. 0. 0. 0. 0. 0. 0.
      0. 0. 0. 0. 0. 0. 0. 0. 0. 0. 0. 0. 0. 0. 0. 0. 0. 0. 0. 0. 0. 0.
      0. 0. 0. 0. 0. 0. 0. 0. 0.0983886719</_>
    <_>
      0. 0. 0.000365773914 0.000731547829 0.000914434786 0.000548660872
      0. 0. 0.00493794773 0.00402351283 0. 0.000182886957 0. 0. 0. 0. 0.
      0. 0. 0. 0. 0. 0. 0. 0. 0. 0. 0. 0. 0. 0. 0. 0. 0. 0. 0. 0.
      0.000182886957 0.0060352697 0.0149967307 0.00676681753
      0.0012802087 0. 0. 0.0828477889 0.0574265048 0.00310907839
      0.000365773914 0. 0. 0.0128020868 0.000914434786 0. 0. 0. 0. 0. 0.
      0. 0. 0. 0. 0. 0. 0. 0. 0. 0. 0. 0. 0. 0. 0. 0.000182886957
      0.0104245562 0.00877857395 0.00219464349 0.00292619132 0. 0.
      0.00640104339 0.00347485207 0.000731547829 0. 0. 0. 0.0060352697
      0.000548660872 0. 0. 0. 0. 0.000548660872 0. 0. 0. 0. 0. 0. 0. 0.
      0. 0. 0. 0. 0. 0. 0. 0. 0. 0.00219464349 0.00493794773
      0.00237753056 0.00292619132 0. 0. 0.000182886957 0. 0. 0. 0. 0.
      0.000914434786 0. 0. 0. 0. 0. 0. 0. 0.00146309566 0.000365773914
      0. 0. 0. 0. 0.0093272347 0.00694970414 0. 0. 0. 0. 0. 0. 0. 0.
      0.00201175641 0.0168255996 0.0676681772 0.0426126607 0. 0.
      0.000365773914 0.00951012224 0.00219464349 0.0102416696 0. 0. 0.
      0.000731547829 0.00164598261 0.00676681753 0. 0. 0. 0.
      0.0230437573 0.0149967307 0. 0. 0. 0. 0.000365773914 0.0276159309
      0. 0. 0. 0. 0. 0.000365773914 0. 0. 0.00365773914 0.467093289
      0.610293806 0.486479312 0. 0. 0.0012802087 0.0665708557
      0.00402351283 0.00402351283 0. 0. 0.000182886957 0.00292619132
      0.00201175641 0. 0. 0. 0. 0. 0. 0. 0. 0. 0. 0. 0. 0. 0. 0. 0. 0.
      0. 0. 0. 0. 0.00201175641 0.123631582 0.156917006 0.291704684 0.
      0. 0.00347485207 0.105708659 0.0731547847 0.0839451104 0. 0. 0. 0.
      0. 0. 0. 0. 0. 0. 0. 0. 0. 0. 0. 0. 0. 0. 0. 0. 0. 0. 0. 0. 0. 0.
      0.00146309566 0.00182886957 0. 0.000365773914 0. 0. 0.
      0.000548660872 0.000914434786 0.00274330424 0. 0. 0. 0. 0. 0. 0.
      0. 0. 0. 0. 0. 0. 0. 0. 0. 0. 0. 0. 0. 0. 0. 0. 0. 0. 0. 0. 0. 0.
      0.000182886957 0. 0. 0. 0. 0. 0. 0. 0. 0. 0. 0. 0. 0. 0. 0. 0. 0.
      0. 0. 0. 0. 0. 0. 0. 0. 0. 0. 0. 0. 0. 0. 0. 0. 0. 0. 0. 0. 0. 0.
      0. 0. 0. 0. 0. 0. 0. 0. 0. 0. 0. 0. 0. 0. 0. 0. 0. 0. 0. 0. 0. 0.
      0. 0. 0. 0. 0. 0. 0. 0. 0. 0. 0. 0. 0. 0. 0. 0. 0. 0. 0. 0. 0. 0.
      0. 0. 0. 0. 0. 0. 0. 0. 0. 0. 0. 0. 0. 0. 0. 0. 0. 0. 0. 0. 0. 0.
      0. 0. 0. 0. 0. 0. 0. 0. 0. 0. 0. 0. 0. 0. 0. 0. 0. 0. 0. 0. 0. 0.
      0. 0. 0. 0. 0. 0. 0. 0. 0. 0. 0. 0.102600098</_>
    <_>
      0. 0. 0.00119498244 0.00238996488 0.00119498244 0.000341423554 0.
      0. 0.00119498244 0.00563348876 0.000341423554 0. 0. 0. 0. 0. 0. 0.
      0. 0. 0. 0. 0. 0. 0. 0. 0. 0. 0. 0. 0. 0. 0. 0. 0. 0. 0. 0.
      0.0126326717 0.0368737429 0.00716989487 0.000853558886 0. 0.
      0.057359159 0.053944923 0.00187782955 0. 0. 0. 0. 0. 0. 0. 0. 0.
      0. 0. 0. 0. 0. 0. 0. 0. 0. 0. 0. 0. 0. 0. 0. 0. 0. 0. 0.0075113182
      0.0153640602 0.00273138843 0.00102427066 0. 0. 0.00614562398
      0.0037556591 0.000512135332 0. 0. 0. 0.00324352365 0.000341423554
      0. 0. 0. 0. 0. 0. 0. 0. 0. 0. 0. 0. 0. 0. 0. 0. 0. 0. 0. 0. 0. 0.
      0.00119498244 0.00512135308 0.00307281199 0.00187782955 0. 0.
      0.000512135332 0.000341423554 0. 0. 0. 0. 0. 0. 0. 0. 0. 0. 0. 0.
      0.00716989487 0.00153640599 0. 0. 0. 0. 0.00238996488
      0.00597491208 0. 0. 0. 0. 0. 0. 0. 0. 0.00136569422 0.0186075829
      0.0728939325 0.0291917138 0. 0. 0. 0.0100719947 0.00273138843
      0.0109255537 0. 0. 0. 0. 0.0162176192 0.00477992976 0. 0. 0. 0.
      0.0146812126 0.012291248 0. 0. 0. 0. 0. 0.0216803961 0. 0. 0. 0.
      0. 0. 0. 0. 0.000853558886 0.523060858 0.68301785 0.351666272 0.
      0. 0. 0.0145105012 0.00170711777 0.00273138843 0. 0. 0.
      0.000512135332 0.000341423554 0. 0. 0. 0. 0. 0. 0. 0. 0. 0. 0. 0.
      0. 0. 0. 0. 0. 0. 0. 0. 0. 0.00221925322 0.15824981 0.184198007
      0.226363823 0. 0. 0. 0.0503599755 0.056847021 0.0616269521 0. 0.
      0. 0. 0. 0. 0. 0. 0. 0. 0. 0. 0. 0. 0. 0. 0. 0. 0. 0. 0. 0. 0. 0.
      0. 0. 0.000682847109 0.00273138843 0.000170711777 0.000341423554
      0. 0. 0. 0.000341423554 0.000512135332 0.00546277687 0. 0. 0. 0.
      0. 0. 0. 0. 0. 0. 0. 0. 0. 0. 0. 0. 0. 0. 0. 0. 0. 0. 0. 0. 0. 0.
      0. 0. 0. 0. 0. 0. 0. 0. 0. 0. 0. 0. 0. 0. 0. 0. 0. 0. 0. 0. 0. 0.
      0. 0. 0. 0. 0. 0. 0. 0. 0. 0. 0. 0. 0. 0. 0. 0. 0. 0. 0. 0. 0. 0.
      0. 0. 0. 0. 0. 0. 0. 0. 0. 0. 0. 0. 0. 0. 0. 0. 0. 0. 0. 0. 0. 0.
      0. 0. 0. 0. 0. 0. 0. 0. 0. 0. 0. 0. 0. 0. 0. 0. 0. 0. 0. 0. 0. 0.
      0. 0. 0. 0. 0. 0. 0. 0. 0. 0. 0. 0. 0. 0. 0. 0. 0. 0. 0. 0. 0.
      0.000170711777 0. 0. 0. 0. 0. 0. 0. 0. 0. 0. 0. 0. 0. 0. 0. 0. 0.
      0. 0. 0. 0. 0. 0. 0. 0. 0. 0. 0. 0. 0. 0. 0. 0.0822753906</_>
    <_>
      0. 0. 0.00103372312 0.000516861561 0.000172287197 0. 0. 0.
      0.0031011696 0. 0. 0. 0. 0. 0. 0. 0. 0. 0. 0. 0. 0. 0. 0. 0. 0. 0.
      0. 0. 0. 0. 0. 0. 0. 0. 0. 0. 0. 0.00740834931 0.00740834931
      0.000861436012 0.000172287197 0. 0.000861436012 0.0571993478
      0.00930350833 0.000172287197 0. 0. 0. 0.00292888237 0. 0. 0. 0. 0.
      0. 0. 0. 0. 0. 0. 0. 0. 0. 0. 0. 0. 0. 0. 0. 0. 0. 0.000344574393
      0.00740834931 0.00671920087 0.000689148786 0.000172287197 0.
      0.000689148786 0.00413489249 0.00189515913 0. 0. 0. 0.
      0.00516861584 0. 0. 0. 0. 0. 0. 0. 0. 0. 0. 0. 0. 0. 0. 0. 0. 0.
      0. 0. 0. 0. 0. 0. 0.0015505848 0.00396260573 0.00172287202
      0.00120601035 0. 0. 0.000344574393 0.000689148786 0.
      0.000172287197 0. 0. 0.000516861561 0. 0. 0. 0. 0. 0. 0.
      0.00258430792 0.000172287197 0. 0. 0. 0. 0.00534090307
      0.00413489249 0. 0. 0. 0. 0. 0.000172287197 0. 0.000172287197
      0.00120601035 0.0167118572 0.0422103629 0.0372140333 0. 0. 0.
      0.0103372317 0.00241202069 0.00982037 0. 0. 0. 0.00103372312
      0.000172287197 0.000516861561 0. 0. 0. 0. 0.0306671206
      0.0115432423 0. 0. 0. 0. 0.000172287197 0.0320454203 0. 0. 0. 0.
      0. 0.000172287197 0. 0. 0.00223973347 0.399706304 0.736700058
      0.35956338 0. 0. 0.00120601035 0.0530644581 0.00516861584
      0.00223973347 0. 0. 0. 0.000516861561 0.00223973347 0. 0. 0. 0. 0.
      0. 0. 0. 0. 0. 0. 0. 0. 0. 0. 0. 0. 0. 0. 0. 0. 0.00258430792
      0.154886186 0.196751982 0.239306912 0. 0. 0.000689148786
      0.144032091 0.0973422676 0.0752895027 0. 0. 0. 0.00344574405
      0.000516861561 0. 0. 0. 0. 0. 0. 0. 0. 0. 0. 0. 0. 0. 0. 0. 0. 0.
      0. 0. 0. 0.000172287197 0.00172287202 0.00172287202 0. 0. 0. 0. 0.
      0.000172287197 0.000344574393 0.00258430792 0. 0. 0. 0. 0. 0. 0.
      0. 0. 0. 0. 0. 0. 0. 0. 0. 0. 0. 0. 0. 0. 0. 0. 0. 0. 0.
      0.000172287197 0.000689148786 0. 0. 0. 0. 0. 0. 0. 0. 0. 0. 0. 0.
      0. 0. 0. 0. 0. 0. 0. 0. 0. 0. 0. 0. 0. 0. 0. 0. 0. 0. 0. 0. 0. 0.
      0.000172287197 0. 0. 0. 0. 0. 0. 0. 0. 0. 0. 0. 0. 0. 0. 0. 0. 0.
      0. 0. 0. 0. 0. 0. 0. 0. 0. 0. 0. 0. 0. 0. 0. 0. 0. 0. 0.
      0.000172287197 0. 0. 0. 0. 0. 0. 0. 0. 0. 0. 0. 0. 0. 0. 0. 0. 0.
      0. 0. 0. 0. 0. 0. 0. 0. 0. 0. 0. 0. 0. 0. 0. 0. 0. 0. 0. 0. 0. 0.
      0. 0. 0. 0. 0. 0. 0. 0. 0. 0. 0. 0. 0. 0. 0. 0. 0. 0. 0. 0. 0. 0.
      0. 0. 0. 0. 0. 0. 0. 0.0836181641</_>
    <_>
      0. 0. 0. 0.000169813618 0.00254720426 0.0168115478 0. 0. 0.
      0.00101888168 0.031075893 0.44406262 0. 0. 0.00916993525
      0.0130756488 0.020887075 0.592819333 0. 0. 0.00169813621
      0.0293777566 0.0332834683 0.318909973 0. 0. 0. 0. 0.00186794985 0.
      0. 0. 0. 0. 0. 0. 0. 0. 0. 0.00186794985 0.015792666 0.0123963943
      0. 0. 0.000679254474 0.00900012162 0.0134152761 0.00237739063 0.
      0.000339627237 0.00390571333 0.0115473261 0. 0. 0. 0.
      0.00101888168 0. 0. 0. 0. 0. 0. 0. 0. 0. 0. 0. 0. 0. 0. 0. 0. 0.
      0. 0.00407552673 0.0142643442 0.00407552673 0. 0. 0. 0.
      0.00101888168 0.000169813618 0. 0.000339627237 0.00101888168
      0.000509440841 0. 0. 0. 0. 0. 0. 0. 0. 0. 0. 0. 0. 0. 0. 0. 0. 0.
      0. 0. 0. 0. 0. 0. 0.00356608606 0.012056767 0.00254720426 0. 0.
      0.000169813618 0.000509440841 0.000509440841 0. 0. 0. 0. 0. 0. 0.
      0. 0. 0. 0. 0.000679254474 0.000509440841 0. 0. 0. 0.000509440841
      0.00305664516 0.00101888168 0. 0. 0. 0. 0. 0.000169813618 0. 0. 0.
      0.0151134124 0.0317551456 0.00933974888 0. 0. 0. 0.00101888168
      0.0125662079 0.0210568886 0. 0. 0. 0. 0.000509440841 0.00679254485
      0. 0. 0. 0. 0.00628310395 0.0309060793 0. 0. 0. 0. 0. 0.0358306728
      0. 0. 0. 0. 0. 0.000169813618 0. 0. 0. 0.0490761362 0.393967599
      0.420967966 0. 0. 0. 0.000509440841 0.068265073 0.00339627243 0.
      0. 0. 0. 0. 0. 0. 0. 0. 0. 0. 0. 0. 0. 0. 0. 0. 0. 0. 0. 0. 0. 0.
      0. 0. 0. 0. 0.00135850895 0.00526422216 0.0268305521 0. 0. 0. 0.
      0.000849068107 0. 0. 0. 0. 0. 0. 0. 0. 0. 0. 0. 0. 0. 0. 0. 0. 0.
      0. 0. 0. 0. 0. 0. 0. 0. 0. 0. 0. 0. 0. 0. 0. 0. 0. 0. 0. 0. 0. 0.
      0. 0. 0. 0. 0. 0. 0. 0. 0. 0. 0. 0. 0. 0. 0. 0. 0. 0. 0. 0. 0. 0.
      0. 0. 0. 0. 0. 0. 0. 0. 0. 0. 0. 0. 0. 0. 0. 0. 0. 0. 0. 0. 0. 0.
      0. 0. 0. 0. 0. 0. 0. 0. 0. 0. 0. 0. 0. 0. 0. 0. 0. 0. 0. 0. 0. 0.
      0. 0. 0. 0. 0. 0. 0. 0. 0. 0. 0. 0. 0. 0. 0. 0. 0. 0. 0. 0. 0. 0.
      0. 0. 0. 0. 0. 0. 0. 0. 0. 0. 0. 0. 0. 0. 0. 0. 0. 0. 0. 0. 0. 0.
      0. 0. 0. 0. 0. 0. 0. 0. 0. 0. 0. 0. 0. 0. 0. 0. 0. 0. 0. 0. 0. 0.
      0. 0. 0. 0.000339627237 0. 0. 0. 0. 0. 0.000169813618 0. 0. 0. 0.
      0. 0. 0. 0. 0. 0. 0. 0. 0. 0. 0. 0. 0. 0. 0. 0. 0. 0. 0. 0.
      0.111694336</_>
    <_>
      0. 0. 0.000170677551 0.00494964886 0.0155316573 0.000341355102 0.
      0. 0.000341355102 0.0358422846 0.207373232 0.013995559 0.
      0.00238948571 0.00716845691 0.0407919362 0.658473969 0.0747567639
      0. 0.00187745306 0.0395971909 0.0539341047 0.346987456 0.023212146
      0. 0. 0. 0.00631506927 0.000170677551 0. 0. 0. 0. 0. 0. 0. 0. 0.
      0.00153609796 0.0186038539 0.00426693866 0. 0. 0.000512032653
      0.00699777948 0.0165557228 0.000682710204 0. 0. 0.00153609796
      0.013995559 0.000170677551 0. 0. 0. 0.00136542041 0.00102406531 0.
      0. 0. 0. 0. 0. 0. 0. 0. 0. 0. 0. 0. 0. 0. 0. 0. 0.00426693866
      0.0150196245 0.00204813061 0. 0. 0. 0. 0.000512032653
      0.000170677551 0. 0. 0.000170677551 0.000512032653 0.000341355102
      0. 0. 0. 0.00256016338 0.000341355102 0. 0. 0. 0. 0. 0. 0. 0. 0.
      0. 0. 0. 0. 0. 0. 0. 0. 0.00358422846 0.0141662369 0.00119474286
      0. 0. 0. 0.000512032653 0.000341355102 0.000170677551 0. 0.
      0.000170677551 0.000170677551 0.000170677551 0. 0. 0. 0. 0.
      0.00102406531 0.000170677551 0. 0. 0. 0.00307219592 0.000682710204
      0.000682710204 0.000341355102 0. 0. 0. 0. 0. 0. 0. 0. 0.0117767509
      0.0336234793 0.0059737144 0.000170677551 0. 0. 0.00307219592
      0.0206519831 0.0191158857 0. 0. 0. 0.000853387755 0.00750981225
      0.0197985955 0.000682710204 0. 0. 0. 0.0148489466 0.0119474288
      0.00426693866 0. 0. 0. 0. 0.00819252245 0.0298685711 0. 0. 0. 0.
      0. 0.000341355102 0. 0. 0.0361836404 0.571599126 0.217784554 0. 0.
      0. 0.00204813061 0.0872162282 0.000512032653 0. 0. 0. 0. 0. 0. 0.
      0. 0. 0. 0. 0. 0. 0. 0. 0. 0. 0. 0. 0. 0. 0. 0. 0. 0. 0. 0.
      0.00307219592 0.0211640168 0.00938726496 0. 0. 0. 0.
      0.000682710204 0. 0. 0. 0. 0. 0. 0. 0. 0. 0. 0. 0. 0. 0. 0. 0. 0.
      0. 0. 0. 0. 0. 0. 0. 0. 0. 0. 0. 0. 0. 0. 0. 0. 0. 0. 0. 0. 0. 0.
      0. 0. 0. 0. 0. 0. 0. 0. 0. 0. 0. 0. 0. 0. 0. 0. 0. 0. 0. 0. 0. 0.
      0. 0. 0. 0. 0. 0. 0. 0. 0. 0. 0. 0. 0. 0. 0. 0. 0. 0. 0. 0. 0. 0.
      0. 0. 0. 0. 0. 0. 0. 0. 0. 0. 0. 0. 0. 0. 0. 0. 0. 0. 0. 0. 0. 0.
      0. 0. 0. 0. 0. 0. 0. 0. 0. 0. 0. 0. 0. 0. 0. 0. 0. 0. 0. 0. 0. 0.
      0. 0. 0. 0. 0. 0. 0. 0. 0. 0. 0. 0. 0. 0. 0. 0. 0. 0. 0. 0. 0. 0.
      0. 0. 0. 0. 0. 0. 0. 0. 0. 0. 0. 0. 0. 0. 0. 0. 0. 0. 0. 0. 0. 0.
      0. 0. 0. 0.000170677551 0. 0. 0. 0. 0. 0. 0. 0. 0. 0. 0. 0. 0. 0.
      0. 0. 0. 0. 0. 0. 0. 0. 0. 0. 0. 0. 0. 0. 0. 0. 0. 0.0632324219</_>
    <_>
      0. 0. 0. 0. 0.0026764404 0.0588816851 0. 0. 0.000472312997
      0.00220412738 0.0385722294 0.771444559 0. 0. 0.0023615649
      0.0181053318 0.11555925 0.357068628 0. 0. 0. 0.000157437666
      0.00362106622 0. 0. 0. 0. 0. 0. 0. 0. 0. 0. 0. 0. 0. 0. 0.
      0.000629750662 0.00173181435 0.0177904554 0.0319598466 0. 0.
      0.00251900265 0.008501634 0.0141693903 0.0050380053 0. 0.
      0.00456569251 0.00251900265 0.000629750662 0. 0. 0. 0. 0. 0. 0. 0.
      0. 0. 0. 0. 0. 0. 0. 0. 0. 0. 0. 0. 0. 0.000472312997
      0.00173181435 0.0092888223 0.0116503872 0. 0. 0.000157437666
      0.000314875331 0.000314875331 0. 0. 0. 0.000157437666 0. 0. 0. 0.
      0. 0. 0. 0. 0. 0. 0. 0. 0. 0. 0. 0. 0. 0. 0. 0. 0. 0. 0. 0.
      0.00472312979 0.0102334479 0.0050380053 0. 0. 0. 0.00125950132
      0.000944625994 0. 0. 0. 0.000157437666 0. 0. 0. 0. 0. 0. 0.
      0.000157437666 0.00299131568 0. 0. 0. 0. 0.0031487532
      0.00472312979 0. 0. 0. 0. 0.000157437666 0.000157437666 0. 0. 0.
      0.0100760106 0.0423507318 0.00976113509 0. 0. 0. 0.00110206369
      0.0119652627 0.021883836 0. 0. 0. 0. 0.000629750662 0.0050380053
      0. 0. 0. 0. 0.00645494414 0.027866466 0. 0. 0. 0. 0. 0.028496217
      0. 0. 0. 0. 0. 0.000157437666 0. 0. 0. 0.0749403313 0.362264067
      0.327785224 0. 0. 0. 0.000629750662 0.0832845271 0.000629750662 0.
      0. 0. 0. 0. 0. 0. 0. 0. 0. 0. 0. 0. 0. 0. 0. 0. 0. 0. 0. 0. 0. 0.
      0. 0. 0. 0. 0.0026764404 0.0061400691 0.0325895958 0. 0. 0. 0.
      0.000157437666 0. 0. 0. 0. 0. 0. 0. 0. 0. 0. 0. 0. 0. 0. 0. 0. 0.
      0. 0. 0. 0. 0. 0. 0. 0. 0. 0. 0. 0. 0. 0.000314875331 0. 0. 0. 0.
      0. 0. 0. 0. 0. 0. 0. 0. 0. 0. 0. 0. 0. 0. 0. 0. 0. 0. 0. 0. 0. 0.
      0. 0. 0. 0. 0. 0. 0. 0. 0. 0.000944625994 0. 0. 0. 0. 0. 0. 0. 0.
      0. 0. 0. 0. 0. 0. 0. 0. 0. 0. 0. 0. 0. 0. 0. 0. 0. 0. 0. 0. 0. 0.
      0. 0. 0. 0. 0. 0. 0. 0. 0. 0. 0. 0. 0. 0. 0. 0. 0. 0. 0. 0. 0. 0.
      0. 0. 0. 0. 0. 0. 0. 0. 0. 0. 0. 0. 0. 0. 0. 0. 0. 0. 0.
      0.000787188299 0. 0. 0. 0. 0. 0. 0. 0. 0. 0. 0. 0. 0. 0. 0. 0. 0.
      0. 0. 0. 0. 0. 0. 0. 0. 0. 0. 0. 0. 0. 0. 0. 0. 0. 0. 0.0015743766
      0. 0. 0. 0. 0. 0. 0. 0. 0. 0. 0. 0. 0. 0. 0. 0. 0. 0. 0. 0. 0. 0.
      0. 0. 0. 0. 0. 0. 0. 0. 0.13458252</_>
    <_>
      0. 0. 0. 0. 0.003075646 0.0442124121 0. 0. 0.000576683611
      0.00557460822 0.317560464 0.298145443 0. 0. 0.0113414442
      0.0355621576 0.609170139 0.133598372 0. 0. 0.00115336722
      0.0049979249 0.0211450662 0.0630507395 0. 0. 0. 0. 0. 0. 0. 0. 0.
      0. 0. 0. 0. 0. 0.00173005089 0.00173005089 0.0117259007
      0.0332554206 0. 0.000961139391 0.0288341809 0.0251818523
      0.00288341823 0.001537823 0. 0.00173005089 0.0574761331
      0.00941916555 0.000192227875 0. 0. 0. 0.000768911501 0. 0. 0. 0.
      0. 0. 0. 0. 0. 0. 0. 0. 0. 0. 0. 0. 0. 0.00134559511 0.00115336722
      0.0101880776 0.0121103562 0. 0. 0.00538238045 0.000576683611
      0.00038445575 0. 0. 0. 0.00288341823 0. 0. 0. 0. 0. 0.000576683611
      0. 0.000192227875 0. 0. 0. 0. 0. 0.00557460822 0. 0. 0. 0. 0. 0.
      0. 0. 0. 0.000576683611 0.00249896245 0.00884248223 0.0049979249
      0. 0. 0.000192227875 0.000192227875 0.000768911501 0. 0. 0.
      0.000192227875 0. 0. 0.00038445575 0. 0. 0. 0. 0.00115336722
      0.00134559511 0. 0. 0. 0. 0.00288341823 0. 0. 0. 0. 0. 0. 0. 0. 0.
      0.000192227875 0.00634351978 0.0403678529 0.014801546 0. 0. 0.
      0.00115336722 0.00903471 0.0255663078 0. 0. 0. 0. 0.000576683611
      0.00519015267 0. 0. 0. 0. 0.00480569666 0.0334476493 0. 0. 0. 0.
      0. 0.0422901325 0. 0. 0. 0. 0. 0.000192227875 0. 0. 0.
      0.0901548713 0.48364532 0.351200342 0. 0. 0. 0.00615129201
      0.183962077 0.00365232956 0. 0. 0. 0. 0. 0. 0. 0. 0. 0. 0. 0. 0.
      0. 0. 0. 0. 0. 0. 0. 0. 0. 0. 0. 0. 0. 0. 0.00288341823
      0.003075646 0.0451735519 0. 0. 0. 0. 0.000192227875 0. 0. 0. 0. 0.
      0. 0. 0. 0. 0. 0. 0. 0. 0. 0. 0. 0. 0. 0. 0. 0. 0. 0. 0. 0. 0. 0.
      0. 0. 0. 0.000768911501 0. 0. 0. 0. 0. 0. 0. 0. 0. 0. 0. 0. 0. 0.
      0. 0. 0. 0. 0. 0. 0. 0. 0. 0. 0. 0. 0. 0. 0. 0. 0. 0. 0. 0. 0.
      0.000576683611 0. 0. 0. 0. 0. 0. 0. 0. 0. 0. 0. 0. 0. 0. 0. 0. 0.
      0. 0. 0. 0. 0. 0. 0. 0. 0. 0. 0. 0. 0. 0. 0. 0. 0. 0. 0. 0. 0. 0.
      0. 0. 0. 0. 0. 0. 0. 0. 0. 0. 0. 0. 0. 0. 0. 0. 0. 0. 0. 0. 0. 0.
      0. 0. 0. 0. 0. 0. 0. 0. 0. 0. 0.001537823 0. 0. 0. 0. 0. 0. 0. 0.
      0. 0. 0. 0. 0. 0. 0. 0. 0. 0. 0. 0. 0. 0. 0. 0. 0. 0. 0. 0. 0. 0.
      0. 0. 0. 0. 0. 0.001537823 0. 0. 0. 0. 0. 0. 0. 0. 0. 0. 0. 0. 0.
      0. 0. 0. 0. 0. 0. 0. 0. 0. 0. 0. 0. 0. 0. 0. 0. 0. 0.116821289</_>
    <_>
      0. 0. 0. 0.00291811745 0.0073811207 0.0144189335 0. 0.00034330794
      0.00326142553 0.271728247 0.126508981 0.0506379195 0.
      0.00223150151 0.0374205671 0.737768769 0.0528694242 0.0176803581
      0. 0.00068661588 0.00823939033 0.0422268771 0.0458316095 0. 0. 0.
      0. 0.00326142553 0. 0. 0. 0. 0. 0. 0. 0. 0. 0.000514961896
      0.00154488569 0.0137323178 0.00514961919 0.00034330794 0.
      0.0102992384 0.0205984768 0.00360473339 0.00017165397 0. 0.
      0.0535560399 0.0212850925 0.000514961896 0. 0. 0. 0.00411969516
      0.00034330794 0.000514961896 0. 0. 0. 0. 0. 0.000514961896 0. 0.
      0. 0. 0. 0. 0. 0. 0. 0.00102992379 0.00171653973 0.0080677364
      0.00188819366 0. 0. 0.00326142553 0.00188819366 0.000514961896 0.
      0. 0. 0. 0.00017165397 0. 0. 0. 0. 0.00188819366 0. 0.000514961896
      0. 0. 0. 0. 0.000514961896 0.00446300302 0. 0. 0. 0. 0. 0. 0. 0.
      0. 0. 0.00240315567 0.0097842766 0.00120157783 0. 0. 0.
      0.00017165397 0.000858269865 0. 0. 0. 0. 0.00017165397 0.
      0.00068661588 0. 0. 0.00120157783 0. 0.000514961896 0.00034330794
      0. 0. 0. 0.00308977137 0.00017165397 0. 0. 0. 0. 0. 0. 0. 0. 0. 0.
      0.00600788882 0.0374205671 0.00549292704 0. 0. 0. 0.00257480959
      0.0135606639 0.0193968993 0. 0. 0. 0. 0.00635119667 0.0185386296
      0.000514961896 0. 0. 0. 0.0142472796 0.0121874316 0.00411969516 0.
      0. 0. 0. 0.00961262267 0.0298677906 0. 0. 0. 0. 0. 0.00034330794
      0. 0. 0.0643702373 0.502431154 0.225724965 0.00429134909 0. 0.
      0.00360473339 0.196543798 0.00068661588 0. 0. 0. 0. 0. 0. 0. 0. 0.
      0. 0. 0. 0. 0. 0. 0. 0. 0. 0. 0. 0. 0. 0. 0. 0. 0. 0.
      0.00171653973 0.00841104425 0.0128740482 0. 0. 0. 0. 0.00120157783
      0. 0. 0. 0. 0. 0. 0. 0. 0. 0. 0. 0. 0. 0. 0. 0. 0. 0. 0. 0. 0. 0.
      0. 0. 0. 0. 0. 0. 0. 0. 0. 0. 0. 0. 0. 0. 0. 0. 0. 0. 0. 0. 0. 0.
      0. 0. 0. 0. 0. 0. 0. 0. 0. 0. 0. 0. 0. 0. 0. 0. 0. 0. 0. 0. 0. 0.
      0. 0. 0. 0. 0. 0. 0. 0. 0. 0. 0. 0. 0. 0. 0. 0. 0. 0. 0. 0. 0. 0.
      0. 0. 0. 0. 0. 0. 0. 0. 0. 0. 0. 0. 0. 0. 0. 0. 0. 0. 0. 0. 0. 0.
      0. 0. 0. 0. 0. 0. 0. 0. 0. 0. 0. 0. 0. 0. 0. 0. 0. 0. 0. 0. 0. 0.
      0. 0. 0. 0. 0. 0. 0. 0. 0. 0. 0. 0. 0. 0. 0. 0. 0. 0. 0. 0. 0. 0.
      0. 0. 0. 0. 0. 0. 0. 0. 0. 0. 0. 0. 0. 0. 0. 0. 0. 0. 0. 0. 0.
      0.00154488569 0. 0. 0. 0. 0. 0. 0. 0. 0. 0. 0. 0. 0. 0. 0. 0. 0.
      0. 0. 0. 0. 0. 0. 0. 0. 0. 0. 0. 0. 0. 0.0739746094</_>
    <_>
      0. 0. 0.00270212092 0.00445055217 0.00906005222 0. 0.000476844842
      0.00143053452 0.152113512 0.0996605754 0.0155769316 0.
      0.00174843112 0.0246369839 0.807298362 0.0375117958 0.00206632772
      0. 0.000158948285 0.0216169674 0.0958458185 0.0249548815 0. 0. 0.
      0.000953689683 0.0176432598 0.00127158628 0. 0. 0. 0. 0. 0. 0. 0.
      0. 0.000635793142 0.0106495349 0.00111263804 0. 0. 0.00349686225
      0.0155769316 0.00667582778 0. 0. 0. 0.0198685359 0.0435518287
      0.000635793142 0. 0. 0. 0.00651687989 0.0136695523 0.000158948285
      0. 0. 0. 0.000317896571 0.000635793142 0. 0. 0. 0. 0. 0. 0. 0. 0.
      0. 0. 0.00302001741 0.010490587 0.000158948285 0. 0. 0.
      0.00206632772 0.000476844842 0. 0. 0. 0. 0.000317896571 0. 0. 0.
      0. 0.00158948288 0.000158948285 0. 0. 0. 0. 0.000635793142 0.
      0.00445055217 0. 0. 0. 0. 0. 0.000158948285 0. 0. 0. 0.
      0.00190737937 0.0122390175 0.000635793142 0. 0. 0. 0.000158948285
      0.000794741441 0. 0. 0. 0. 0.000317896571 0. 0. 0. 0. 0.
      0.000158948285 0.000794741441 0.00111263804 0. 0. 0. 0.
      0.00317896577 0. 0. 0. 0. 0. 0. 0.000317896571 0. 0. 0.
      0.00540424185 0.0467307977 0.00222527608 0. 0. 0. 0.000794741441
      0.0143053457 0.0135106044 0. 0. 0. 0. 0.0057221381 0.000635793142
      0. 0. 0. 0. 0.0222527608 0.00651687989 0. 0. 0. 0. 0.000476844842
      0.0351275727 0. 0. 0. 0. 0. 0.00556319021 0.000158948285 0. 0.
      0.0303591229 0.465082675 0.0481613316 0. 0. 0. 0.0341738798
      0.258608848 0.000476844842 0. 0. 0. 0. 0.000317896571 0. 0. 0. 0.
      0. 0. 0. 0. 0. 0. 0. 0. 0. 0. 0. 0. 0. 0. 0. 0. 0. 0.
      0.00540424185 0.0797920376 0.0230475012 0. 0. 0. 0.00206632772
      0.00413265545 0. 0. 0. 0. 0. 0. 0. 0. 0. 0. 0. 0. 0. 0. 0. 0. 0.
      0. 0. 0. 0. 0. 0. 0. 0. 0. 0. 0. 0. 0.000158948285 0. 0. 0. 0. 0.
      0. 0. 0. 0. 0. 0. 0. 0. 0. 0. 0. 0. 0. 0. 0. 0. 0. 0. 0. 0. 0. 0.
      0. 0. 0. 0. 0. 0. 0. 0. 0. 0. 0. 0. 0. 0. 0. 0. 0. 0. 0. 0. 0. 0.
      0. 0. 0. 0. 0. 0. 0. 0. 0. 0. 0. 0. 0. 0. 0. 0. 0. 0. 0. 0. 0. 0.
      0. 0. 0. 0. 0. 0. 0. 0. 0. 0. 0. 0. 0. 0. 0. 0. 0. 0. 0. 0. 0. 0.
      0. 0. 0. 0. 0. 0. 0. 0. 0. 0. 0. 0. 0. 0. 0. 0. 0.000158948285 0.
      0. 0. 0. 0. 0. 0. 0. 0. 0. 0. 0. 0. 0. 0. 0. 0. 0. 0. 0. 0. 0. 0.
      0. 0. 0. 0. 0. 0. 0. 0. 0. 0. 0. 0.000794741441 0.000953689683 0.
      0. 0. 0. 0.00127158628 0. 0. 0. 0. 0. 0. 0. 0. 0. 0. 0. 0. 0. 0.
      0. 0. 0. 0. 0. 0. 0. 0. 0. 0. 0. 0. 0.0606689453</_>
    <_>
      0. 0. 0.000314225908 0.000157112954 0.00298514613 0.0435202867 0.
      0. 0.00424204953 0.0227813777 0.72790432 0.184136376 0. 0.
      0.00314225908 0.0182251036 0.190578014 0.053889744 0. 0. 0.
      0.000314225908 0.0144543918 0.0174395386 0. 0. 0. 0. 0. 0. 0. 0.
      0. 0. 0. 0. 0. 0. 0.00471338863 0.00424204953 0.0119405845
      0.0142972786 0. 0. 0.0593886971 0.0333079472 0.00282803318
      0.000314225908 0. 0. 0.00267092022 0.00188535545 0.000314225908 0.
      0. 0. 0. 0.000157112954 0. 0. 0. 0. 0. 0. 0. 0. 0. 0. 0. 0. 0. 0.
      0. 0. 0.00188535545 0.00329937204 0.0106836809 0.00628451817 0. 0.
      0.000942677725 0.000157112954 0.000157112954 0. 0. 0. 0.0017282425
      0. 0. 0. 0. 0. 0. 0. 0.0045562759 0. 0. 0. 0. 0. 0. 0. 0. 0. 0. 0.
      0. 0. 0. 0. 0.000471338863 0.00141401659 0.00942677725
      0.00188535545 0. 0. 0.000314225908 0.000157112954 0.000314225908
      0. 0. 0. 0. 0. 0. 0.00157112954 0. 0. 0. 0. 0.00314225908
      0.000157112954 0. 0. 0. 0. 0. 0. 0. 0. 0. 0. 0. 0. 0. 0.
      0.000314225908 0.00785564817 0.042420499 0.00864121225 0. 0. 0. 0.
      0.0108407941 0.0164968595 0. 0. 0. 0. 0.00738430861 0.0169681981
      0. 0. 0. 0. 0.000157112954 0.025452299 0. 0. 0. 0. 0. 0.0204246845
      0. 0. 0. 0. 0. 0. 0. 0. 0. 0.0952104479 0.577547193 0.199376345 0.
      0. 0. 0. 0.0388069004 0.000314225908 0. 0. 0. 0. 0. 0. 0. 0. 0. 0.
      0. 0. 0. 0. 0. 0. 0. 0. 0. 0. 0. 0. 0. 0. 0. 0. 0. 0.00109979068
      0.0045562759 0.0271805413 0. 0. 0. 0. 0. 0. 0. 0. 0. 0. 0. 0. 0.
      0. 0. 0. 0. 0. 0. 0. 0. 0. 0. 0. 0. 0. 0. 0. 0. 0. 0. 0. 0. 0. 0.
      0. 0. 0. 0. 0. 0. 0. 0. 0. 0. 0. 0. 0. 0. 0. 0. 0. 0. 0. 0. 0. 0.
      0. 0. 0. 0. 0. 0. 0. 0. 0. 0. 0. 0. 0. 0. 0.000314225908 0. 0. 0.
      0. 0. 0. 0. 0. 0. 0. 0. 0. 0. 0. 0. 0. 0. 0. 0. 0. 0. 0. 0. 0. 0.
      0. 0. 0. 0. 0. 0. 0. 0. 0. 0. 0.000157112954 0. 0. 0. 0. 0. 0. 0.
      0. 0. 0. 0. 0. 0. 0. 0. 0. 0. 0. 0. 0. 0. 0. 0. 0. 0. 0. 0. 0. 0.
      0. 0. 0. 0. 0. 0. 0.000785564771 0. 0. 0. 0. 0. 0. 0. 0. 0. 0. 0.
      0. 0. 0. 0. 0. 0. 0. 0. 0. 0. 0. 0. 0. 0. 0. 0. 0. 0. 0. 0. 0. 0.
      0. 0. 0.00314225908 0. 0. 0. 0. 0. 0. 0. 0. 0. 0. 0. 0. 0. 0. 0.
      0. 0. 0. 0. 0. 0. 0. 0. 0. 0. 0. 0. 0. 0. 0. 0.0969238281</_>
    <_>
      0. 0. 0. 0. 0. 0. 0. 0. 0.000149511339 0. 0. 0.000299022679 0. 0.
      0. 0. 0. 0. 0. 0. 0. 0. 0. 0. 0. 0. 0. 0. 0. 0. 0. 0. 0. 0. 0. 0.
      0. 0.000448534032 0.00538240839 0.0013456021 0.0019436474
      0.000448534032 0. 0.000149511339 0.0608511157 0.0319954269
      0.0167452693 0.00269120419 0. 0. 0.0158482026 0.00598045345 0. 0.
      0. 0. 0. 0. 0. 0. 0. 0. 0. 0. 0. 0. 0. 0. 0. 0. 0. 0. 0.
      0.00119609071 0.00433582906 0.0013456021 0.00284071546
      0.000299022679 0. 0.000299022679 0.00448534032 0.0019436474
      0.000299022679 0. 0. 0. 0.00224267016 0.000448534032 0. 0. 0. 0.
      0.000299022679 0. 0. 0. 0. 0. 0. 0. 0. 0. 0. 0. 0. 0. 0. 0. 0.
      0.000448534032 0.00209315866 0.00448534032 0.00254169269
      0.00224267016 0. 0. 0.000149511339 0. 0. 0.000149511339 0. 0.
      0.000448534032 0. 0.000299022679 0. 0. 0. 0. 0. 0.000747556682
      0.000149511339 0. 0. 0. 0. 0.00269120419 0.00553191965 0. 0. 0. 0.
      0. 0. 0. 0.000747556682 0.00269120419 0.071914956 0.112133503
      0.0586084463 0. 0. 0.0013456021 0.00119609071 0.0125589529
      0.0162967369 0. 0.000598045357 0.00269120419 0.000149511339
      0.000598045357 0.00493387412 0. 0.00119609071 0.000149511339
      0.00104657933 0.00777458958 0.0225762129 0. 0. 0. 0.000598045357
      0.0013456021 0.0275100861 0. 0. 0. 0. 0. 0.000149511339 0.
      0.000747556682 0.00104657933 0.180609703 0.908580422 0.22037971 0.
      0.0019436474 0.00956872571 0.0116618844 0.0330420062 0. 0.
      0.000149511339 0. 0. 0. 0. 0. 0. 0. 0. 0. 0. 0. 0. 0. 0. 0. 0. 0.
      0. 0. 0. 0. 0. 0. 0. 0.00119609071 0.0275100861 0.203036398
      0.0883612037 0. 0. 0.0019436474 0.0186889172 0.10166771
      0.0472455844 0. 0. 0.000448534032 0.00313973823 0.00867165811 0.
      0. 0. 0. 0. 0. 0. 0. 0. 0. 0. 0. 0. 0. 0. 0. 0. 0. 0. 0. 0.
      0.000448534032 0.000149511339 0.000299022679 0.00179413613 0. 0.
      0.000897068065 0.000149511339 0.0227257237 0.00358827226 0. 0.
      0.000747556682 0.000299022679 0.013755043 0. 0. 0. 0. 0. 0. 0. 0.
      0. 0. 0. 0. 0. 0. 0. 0. 0. 0. 0. 0. 0. 0. 0. 0. 0. 0. 0. 0. 0. 0.
      0. 0. 0. 0. 0. 0. 0. 0. 0. 0. 0. 0. 0. 0. 0. 0. 0. 0. 0. 0. 0. 0.
      0. 0. 0. 0. 0. 0. 0. 0. 0. 0. 0. 0. 0. 0. 0. 0. 0. 0. 0. 0. 0. 0.
      0. 0. 0. 0. 0. 0. 0. 0. 0. 0. 0. 0. 0. 0. 0. 0. 0. 0. 0. 0. 0. 0.
      0. 0. 0. 0. 0. 0. 0. 0. 0. 0. 0. 0. 0. 0. 0. 0. 0. 0. 0. 0. 0. 0.
      0. 0. 0. 0. 0. 0. 0. 0. 0. 0. 0. 0. 0. 0. 0. 0. 0. 0. 0. 0. 0. 0.
      0. 0. 0. 0. 0. 0. 0. 0. 0. 0. 0. 0. 0. 0. 0. 0. 0. 0. 0. 0. 0. 0.
      0. 0.115539551</_>
    <_>
      0. 0. 0. 0. 0. 0. 0. 0.000344382599 0.0010331478 0.000172191299 0.
      0. 0. 0. 0.00189410429 0. 0. 0. 0. 0. 0. 0. 0. 0. 0. 0. 0. 0. 0.
      0. 0. 0. 0. 0. 0. 0. 0. 0.0013775304 0.00688765198 0.00361601729
      0. 0. 0. 0.0141196866 0.0788636133 0.0113646258 0. 0. 0.
      0.00189410429 0.0428756326 0. 0. 0. 0. 0. 0. 0. 0. 0. 0. 0. 0. 0.
      0. 0. 0. 0. 0. 0. 0. 0. 0. 0.00309944339 0.0115368171
      0.00774860848 0.000688765198 0.000172191299 0. 0.00516573898
      0.00447697379 0. 0. 0. 0. 0.000860956497 0.00396039989 0. 0. 0. 0.
      0.000172191299 0.000688765198 0. 0. 0. 0. 0. 0. 0. 0. 0. 0. 0. 0.
      0. 0. 0. 0. 0.0010331478 0.00447697379 0.00981490407 0.00241067819
      0.000516573898 0. 0. 0.000688765198 0. 0. 0. 0. 0.0010331478
      0.000516573898 0. 0. 0. 0. 0.000344382599 0. 0.000688765198
      0.00258286949 0. 0. 0. 0. 0. 0.00396039989 0.000344382599 0. 0. 0.
      0. 0. 0. 0. 0.000516573898 0.00378820859 0.0731813014 0.0824796334
      0.0175635125 0. 0. 0. 0.0013775304 0.0194576159 0.0132587301 0.
      0.000344382599 0.00172191299 0. 0.0013775304 0.00585450418 0.
      0.000172191299 0. 0.000860956497 0.00705984328 0.0272062253 0. 0.
      0. 0. 0.000516573898 0.03684894 0. 0. 0. 0. 0. 0.000172191299 0.
      0. 0.00378820859 0.401722312 0.76831758 0.105553269 0.
      0.000172191299 0.00241067819 0.00619888678 0.0375377014
      0.00223848689 0. 0. 0. 0. 0.0013775304 0.000172191299 0. 0. 0. 0.
      0. 0. 0. 0. 0. 0. 0. 0. 0. 0. 0. 0. 0. 0. 0. 0.000172191299
      0.000344382599 0.0881619453 0.369866908 0.137408659 0. 0.
      0.0015497217 0.126732796 0.168230906 0.0609557182 0. 0.
      0.000172191299 0.00585450418 0.000172191299 0. 0. 0. 0. 0. 0. 0.
      0. 0. 0. 0. 0. 0. 0. 0. 0. 0. 0. 0. 0. 0.000172191299 0.
      0.000344382599 0. 0.000344382599 0. 0. 0. 0.000172191299
      0.0013775304 0.00447697379 0. 0. 0. 0. 0. 0. 0. 0. 0. 0. 0. 0. 0.
      0. 0. 0. 0. 0. 0. 0. 0. 0. 0. 0. 0. 0. 0. 0. 0. 0. 0. 0. 0. 0. 0.
      0. 0. 0. 0. 0. 0. 0. 0. 0. 0. 0. 0. 0. 0. 0. 0. 0. 0. 0. 0. 0. 0.
      0. 0. 0. 0. 0. 0. 0. 0. 0. 0. 0. 0. 0. 0. 0. 0. 0. 0. 0. 0. 0. 0.
      0. 0. 0. 0. 0. 0. 0. 0. 0. 0. 0. 0. 0. 0. 0. 0. 0. 0. 0. 0. 0. 0.
      0. 0. 0. 0. 0. 0. 0. 0. 0. 0. 0. 0. 0. 0. 0. 0. 0. 0. 0. 0. 0. 0.
      0. 0. 0. 0. 0. 0. 0. 0. 0. 0. 0. 0. 0. 0. 0. 0. 0. 0. 0. 0. 0. 0.
      0. 0. 0. 0. 0. 0. 0. 0. 0. 0. 0. 0. 0. 0. 0. 0. 0. 0. 0. 0. 0. 0.
      0. 0.0845336914</_>
    <_>
      0.00119392457 0.000397974858 0. 0. 0. 0. 0.00258683646
      0.000397974858 0.000198987429 0. 0. 0. 0.00198987429 0.00238784915
      0. 0. 0. 0. 0.000795949716 0.000397974858 0. 0. 0. 0. 0. 0. 0. 0.
      0. 0. 0. 0. 0. 0. 0. 0. 0.00159189943 0.00198987429 0.00258683646
      0. 0. 0. 0.00815848447 0.00955139659 0.0183068439 0. 0. 0.
      0.0260673538 0.0252714027 0. 0. 0. 0. 0.0185058303 0.011143296 0.
      0. 0. 0. 0.000596962287 0. 0. 0. 0. 0. 0. 0. 0. 0. 0. 0.
      0.00298481155 0.0183068439 0.0047756983 0. 0. 0. 0.00318379886
      0.000397974858 0.00238784915 0. 0. 0. 0.00258683646 0.00159189943
      0. 0. 0. 0. 0.000994937145 0.00198987429 0. 0. 0. 0.
      0.000795949716 0. 0. 0. 0. 0. 0. 0. 0. 0. 0. 0. 0. 0.0210926682
      0.00756152254 0.000795949716 0. 0. 0.000795949716 0.000198987429
      0.000397974858 0.000198987429 0. 0. 0. 0. 0. 0. 0. 0.
      0.000795949716 0.000198987429 0.00119392457 0.000198987429 0. 0.
      0.000397974858 0. 0.00636759773 0. 0. 0. 0. 0. 0. 0.000198987429
      0. 0. 0.001392912 0.0594972409 0.229432508 0.00895443466
      0.000198987429 0. 0.00179088686 0.00636759773 0.0344248265
      0.0113422833 0. 0. 0. 0.000795949716 0.0059696231 0.00119392457 0.
      0. 0.001392912 0.000596962287 0.0334298871 0.00397974858 0. 0.
      0.000795949716 0. 0.00358177372 0.0409914106 0. 0. 0. 0. 0.
      0.00955139659 0.000198987429 0. 0.00119392457 0.270025939
      0.68710357 0.0314400122 0.000397974858 0. 0.00119392457
      0.100687638 0.305047721 0.001392912 0. 0. 0.000596962287 0.
      0.00119392457 0.00198987429 0. 0. 0. 0. 0. 0. 0. 0. 0. 0. 0. 0. 0.
      0. 0. 0. 0. 0. 0. 0. 0.00159189943 0.234805167 0.298680127
      0.0366136879 0.00218886184 0. 0.00298481155 0.258484662
      0.270224929 0.0318379886 0. 0. 0.000596962287 0.00676557235
      0.00815848447 0. 0. 0. 0. 0. 0. 0. 0. 0. 0. 0. 0. 0. 0. 0. 0. 0.
      0. 0. 0. 0. 0.000397974858 0.000994937145 0.000795949716
      0.00358177372 0.000596962287 0. 0.000795949716 0.00318379886
      0.00756152254 0.0143270949 0. 0. 0. 0.000994937145 0. 0. 0. 0. 0.
      0. 0. 0. 0. 0. 0. 0. 0. 0. 0. 0. 0. 0. 0. 0. 0. 0. 0.000198987429
      0.000198987429 0. 0.000198987429 0.000397974858 0. 0. 0. 0. 0. 0.
      0. 0. 0. 0. 0. 0. 0. 0. 0. 0. 0. 0. 0. 0. 0. 0. 0. 0. 0. 0. 0. 0.
      0. 0. 0. 0. 0. 0. 0. 0. 0. 0. 0. 0. 0. 0. 0. 0. 0. 0. 0. 0. 0. 0.
      0. 0. 0. 0. 0. 0. 0. 0. 0. 0. 0. 0. 0. 0. 0. 0. 0. 0.
      0.000198987429 0.000198987429 0. 0. 0. 0. 0. 0. 0. 0. 0. 0. 0. 0.
      0. 0. 0. 0. 0. 0. 0. 0. 0. 0. 0. 0. 0. 0. 0. 0. 0. 0. 0. 0. 0. 0.
      0. 0. 0. 0. 0. 0. 0. 0. 0. 0. 0. 0. 0. 0. 0. 0. 0. 0. 0. 0. 0. 0.
      0. 0. 0. 0. 0. 0. 0. 0. 0. 0. 0. 0. 0. 0.0491333008</_>
    <_>
      0.000969582587 0.0011634992 0. 0. 0. 0. 0.00213308167 0.0011634992
      0. 0. 0. 0. 0.00213308167 0.00290874788 0. 0. 0. 0. 0.0011634992
      0.000581749598 0. 0. 0. 0. 0. 0. 0. 0. 0. 0. 0. 0. 0. 0. 0. 0.
      0.00213308167 0.000969582587 0.00290874788 0. 0. 0. 0.00775666069
      0.0129924072 0.0166768208 0. 0. 0. 0.0236578155 0.0263726469
      0.000193916523 0. 0. 0. 0.0172585715 0.00542966276 0. 0. 0. 0. 0.
      0. 0. 0. 0. 0. 0. 0. 0. 0. 0. 0. 0.0011634992 0.0166768208
      0.00562357903 0. 0. 0. 0.00290874788 0.000193916523 0.00135741569
      0. 0. 0. 0.00310266437 0.00135741569 0.000387833046 0. 0. 0.
      0.000969582587 0.00213308167 0. 0. 0. 0. 0.0011634992
      0.000193916523 0. 0. 0. 0. 0. 0. 0. 0. 0. 0. 0.000969582587
      0.0159011558 0.00892016012 0. 0. 0. 0.000387833046 0.000193916523
      0.000193916523 0. 0. 0. 0. 0. 0. 0. 0. 0. 0.000581749598
      0.000193916523 0.000581749598 0.000193916523 0. 0. 0.000387833046
      0.000387833046 0.00698099472 0.000775666093 0. 0. 0. 0. 0.
      0.000193916523 0. 0. 0.00135741569 0.0620532855 0.184220701
      0.00892016012 0. 0. 0.000775666093 0.00601141201 0.0319962278
      0.0104714921 0. 0. 0.000193916523 0.000969582587 0.00446008006
      0.0011634992 0. 0. 0.000969582587 0.000193916523 0.0327718928
      0.00407224707 0. 0. 0.00135741569 0. 0.00290874788 0.0376198068 0.
      0. 0. 0. 0. 0.0108593255 0.000193916523 0. 0.00174524868
      0.294753104 0.716327608 0.0347110592 0. 0. 0.0011634992
      0.0897833481 0.294171363 0.00155133219 0. 0. 0.000387833046
      0.000193916523 0.00135741569 0.00155133219 0. 0. 0. 0. 0. 0. 0. 0.
      0. 0. 0. 0. 0. 0. 0. 0. 0. 0. 0. 0. 0.00290874788 0.228627577
      0.282536387 0.0321901441 0.000969582587 0. 0.00193916517
      0.228627577 0.269350052 0.0378137231 0. 0. 0.000775666093
      0.00775666069 0.00659316173 0. 0. 0. 0.000387833046 0.000969582587
      0. 0. 0. 0. 0. 0. 0. 0. 0. 0. 0. 0. 0. 0. 0. 0. 0.00174524868
      0.00310266437 0.0011634992 0.00659316173 0.00135741569 0.
      0.000775666093 0.000969582587 0.00232699839 0.00775666069 0. 0.
      0.000193916523 0.000775666093 0.000193916523 0. 0. 0. 0. 0. 0. 0.
      0. 0. 0. 0. 0. 0. 0. 0. 0. 0. 0. 0. 0. 0. 0.00174524868
      0.000775666093 0. 0.000775666093 0.000775666093 0. 0. 0. 0. 0. 0.
      0. 0. 0. 0. 0. 0. 0. 0. 0. 0. 0. 0. 0. 0. 0. 0. 0. 0. 0. 0. 0. 0.
      0. 0. 0. 0.000193916523 0. 0. 0. 0. 0. 0. 0. 0. 0. 0. 0. 0. 0. 0.
      0. 0. 0. 0. 0. 0. 0. 0. 0. 0. 0. 0. 0. 0. 0. 0. 0. 0. 0. 0. 0.
      0.000387833046 0. 0. 0. 0. 0. 0. 0. 0. 0. 0. 0. 0. 0. 0. 0. 0. 0.
      0. 0. 0. 0. 0. 0. 0. 0. 0. 0. 0. 0. 0. 0. 0. 0. 0. 0. 0.
      0.000193916523 0. 0. 0. 0. 0. 0. 0. 0. 0. 0. 0. 0. 0. 0. 0. 0. 0.
      0. 0. 0. 0. 0. 0. 0. 0. 0. 0. 0. 0. 0. 0. 0. 0. 0. 0.0471801758</_>
    <_>
      0. 0. 0. 0. 0. 0. 0. 0. 0.000665941101 0. 0. 0. 0. 0.
      0.000998911681 0.000332970551 0. 0. 0. 0. 0. 0. 0. 0. 0. 0. 0. 0.
      0. 0. 0. 0. 0. 0. 0. 0. 0. 0. 0.00116539688 0.00216430868
      0.0214766003 0.0917333886 0. 0. 0.0304668061 0.0357943326
      0.013818278 0.00965614617 0. 0. 0.00116539688 0.0013318822 0. 0.
      0. 0. 0. 0. 0. 0. 0. 0. 0. 0. 0. 0. 0. 0. 0. 0. 0. 0. 0. 0.
      0.00216430868 0.00349619077 0.0997246802 0.483639717 0. 0.
      0.00183133804 0.00199782336 0.00216430868 0. 0. 0. 0.00116539688
      0.000166485275 0. 0. 0. 0. 0. 0. 0. 0. 0. 0. 0. 0. 0. 0. 0. 0. 0.
      0. 0. 0. 0. 0. 0.00049945584 0.000832426362 0.0188128352
      0.0121534253 0. 0. 0. 0. 0. 0. 0. 0. 0.000832426362 0. 0. 0. 0. 0.
      0. 0. 0.000665941101 0. 0. 0. 0. 0. 0.00149836752 0.00199782336 0.
      0. 0. 0. 0. 0. 0. 0. 0.00049945584 0.00183133804 0.0256387331
      0.0106550576 0. 0. 0.000166485275 0. 0.0139847631 0.0181468949 0.
      0. 0. 0. 0.000332970551 0.00332970545 0. 0. 0. 0. 0.00632644026
      0.0352948792 0. 0. 0. 0. 0. 0.0352948792 0. 0. 0. 0. 0.
      0.000166485275 0. 0. 0. 0.129026085 0.749516726 0.267208874 0. 0.
      0. 0.0109880278 0.152167544 0.0013318822 0. 0. 0. 0. 0. 0. 0. 0.
      0. 0. 0. 0. 0. 0. 0. 0. 0. 0. 0. 0. 0. 0. 0. 0. 0. 0. 0.
      0.0451175086 0.131023914 0.217762738 0. 0. 0. 0.00166485272
      0.0256387331 0. 0. 0. 0. 0. 0. 0. 0. 0. 0. 0. 0. 0. 0. 0. 0. 0. 0.
      0. 0. 0. 0. 0. 0. 0. 0. 0. 0. 0. 0. 0.000166485275 0. 0. 0. 0. 0.
      0. 0. 0. 0. 0. 0. 0. 0. 0. 0. 0. 0. 0. 0. 0. 0. 0. 0. 0. 0. 0. 0.
      0. 0. 0. 0. 0. 0. 0. 0. 0. 0. 0. 0. 0. 0. 0. 0. 0. 0. 0. 0. 0. 0.
      0. 0. 0. 0. 0. 0. 0. 0. 0. 0. 0. 0. 0. 0. 0. 0. 0. 0. 0. 0. 0. 0.
      0. 0. 0. 0. 0. 0. 0. 0. 0. 0. 0. 0. 0. 0. 0. 0. 0. 0. 0. 0. 0. 0.
      0. 0. 0. 0. 0. 0. 0. 0. 0. 0. 0. 0. 0. 0. 0. 0. 0. 0. 0. 0. 0. 0.
      0. 0. 0. 0. 0. 0. 0. 0. 0. 0. 0. 0. 0. 0. 0. 0. 0. 0. 0. 0. 0. 0.
      0. 0. 0. 0. 0. 0. 0. 0. 0. 0. 0. 0. 0. 0. 0. 0. 0. 0. 0. 0. 0. 0.
      0. 0. 0. 0. 0. 0. 0. 0. 0. 0. 0. 0. 0. 0. 0. 0.0905151367</_>
    <_>
      0. 0. 0. 0. 0. 0. 0. 0. 0.00166792143 0. 0. 0. 0. 0.
      0.000166792146 0. 0. 0. 0. 0. 0. 0. 0. 0. 0. 0. 0. 0. 0. 0. 0. 0.
      0. 0. 0. 0. 0. 0. 0. 0.00266867434 0.0190143045 0.0934036002 0. 0.
      0.0256859902 0.0338588059 0.0188475121 0.00717206206 0. 0.
      0.00333584286 0.00400301162 0. 0. 0. 0. 0. 0. 0. 0. 0. 0. 0. 0. 0.
      0. 0. 0. 0. 0. 0. 0. 0. 0. 0.00116754498 0.00366942724 0.116921291
      0.466350853 0. 0. 0.00383621943 0.000833960716 0.00283546653
      0.000333584292 0. 0. 0.00100075291 0.000333584292 0. 0. 0. 0. 0.
      0. 0. 0. 0. 0. 0. 0. 0. 0. 0. 0. 0. 0. 0. 0. 0. 0. 0.00116754498
      0.000500376453 0.0193478893 0.0120090349 0. 0.000166792146
      0.000166792146 0. 0. 0. 0. 0. 0.00100075291 0. 0. 0. 0. 0. 0. 0.
      0.000333584292 0. 0. 0. 0. 0. 0.00183471362 0.002168298 0. 0. 0.
      0. 0. 0. 0. 0. 0.000500376453 0.00150112936 0.0271871202
      0.00883998349 0. 0. 0.000166792146 0. 0.0150112929 0.0191810969 0.
      0. 0.000166792146 0. 0.000166792146 0.00500376429 0. 0. 0. 0.
      0.00667168573 0.0328580514 0. 0. 0. 0. 0. 0.0355267264 0. 0. 0. 0.
      0. 0.000166792146 0. 0. 0. 0.15728499 0.756902754 0.276541382 0.
      0. 0. 0.0226837322 0.171629116 0.00100075291 0. 0. 0. 0. 0. 0. 0.
      0. 0. 0. 0. 0. 0. 0. 0. 0. 0. 0. 0. 0. 0. 0. 0. 0. 0. 0. 0.
      0.0260195751 0.110416397 0.189142287 0. 0. 0. 0.002168298
      0.0195146818 0. 0. 0. 0. 0. 0. 0. 0. 0. 0. 0. 0. 0. 0. 0. 0. 0. 0.
      0. 0. 0. 0. 0. 0. 0. 0. 0. 0. 0. 0. 0.000667168584 0. 0. 0. 0. 0.
      0. 0. 0. 0. 0. 0. 0. 0. 0. 0. 0. 0. 0. 0. 0. 0. 0. 0. 0. 0. 0. 0.
      0. 0. 0. 0. 0. 0. 0. 0. 0. 0. 0. 0. 0. 0. 0. 0. 0. 0. 0. 0. 0. 0.
      0. 0. 0. 0. 0. 0. 0. 0. 0. 0. 0. 0. 0. 0. 0. 0. 0. 0. 0. 0. 0. 0.
      0. 0. 0. 0. 0. 0. 0. 0. 0. 0. 0. 0. 0. 0. 0. 0. 0. 0. 0. 0. 0. 0.
      0. 0. 0. 0. 0. 0. 0. 0. 0. 0. 0. 0. 0. 0. 0. 0. 0. 0. 0. 0. 0. 0.
      0. 0. 0. 0. 0. 0. 0. 0. 0. 0. 0. 0. 0. 0. 0. 0. 0. 0. 0. 0. 0. 0.
      0. 0. 0. 0. 0. 0. 0. 0. 0. 0. 0. 0. 0. 0. 0. 0. 0. 0. 0. 0. 0. 0.
      0. 0. 0. 0. 0. 0. 0. 0. 0. 0. 0. 0. 0. 0. 0. 0.0919189453</_>
    <_>
      0. 0. 0.000195924818 0. 0. 0. 0. 0.000783699274 0.00274294754
      0.000587774441 0. 0. 0. 0. 0. 0. 0. 0. 0. 0. 0. 0. 0. 0. 0. 0. 0.
      0. 0. 0. 0. 0. 0. 0. 0. 0. 0. 0.00235109776 0.00744514307
      0.00528996997 0.0109717902 0. 0. 0.0625000149 0.0713166371
      0.0144984368 0. 0. 0. 0.0188087821 0.00431034621 0. 0. 0. 0. 0. 0.
      0. 0. 0. 0. 0. 0. 0. 0. 0. 0. 0. 0. 0. 0. 0. 0. 0.00470219553
      0.0154780606 0.19416149 0.272139579 0. 0. 0.00528996997
      0.000979624107 0. 0. 0. 0. 0. 0.000195924818 0. 0. 0. 0.
      0.000195924818 0. 0. 0. 0. 0. 0. 0. 0. 0. 0. 0. 0. 0. 0. 0. 0. 0.
      0.000979624107 0.0291927978 0.470807344 0.0240987521 0. 0. 0.
      0.000391849637 0.00137147377 0. 0. 0. 0.000979624107
      0.000587774441 0. 0. 0. 0. 0.00117554888 0. 0.00117554888
      0.000195924818 0. 0. 0. 0.00254702265 0.000195924818 0. 0. 0. 0.
      0. 0. 0. 0. 0. 0.000783699274 0.0237069037 0.539772868
      0.0395768136 0. 0. 0. 0.0021551731 0.0239028279 0.0133228879 0. 0.
      0. 0. 0.00862069242 0.0229232032 0. 0. 0. 0. 0.0272335503
      0.0115595646 0.00411442108 0. 0. 0. 0. 0.0150862113 0.0303683467
      0. 0. 0. 0. 0. 0.000587774441 0. 0. 0.0969827846 0.507837117
      0.161833897 0.000195924818 0. 0. 0.00822884217 0.223746136
      0.00313479709 0. 0. 0. 0. 0.000783699274 0. 0. 0. 0. 0. 0. 0. 0.
      0. 0. 0. 0. 0. 0. 0. 0. 0. 0. 0. 0. 0. 0. 0.0266457759
      0.0891457945 0.071904406 0. 0. 0. 0.000195924818 0.0266457759
      0.000391849637 0. 0. 0. 0. 0. 0. 0. 0. 0. 0. 0. 0. 0. 0. 0. 0. 0.
      0. 0. 0. 0. 0. 0. 0. 0. 0. 0. 0. 0. 0. 0. 0. 0. 0. 0. 0. 0. 0. 0.
      0. 0. 0. 0. 0. 0. 0. 0. 0. 0. 0. 0. 0. 0. 0. 0. 0. 0. 0. 0. 0. 0.
      0. 0. 0. 0. 0. 0. 0. 0. 0. 0. 0. 0. 0. 0. 0. 0. 0. 0. 0. 0. 0. 0.
      0. 0. 0. 0. 0. 0. 0. 0. 0. 0. 0. 0. 0. 0. 0. 0. 0. 0. 0. 0. 0. 0.
      0. 0. 0. 0. 0. 0. 0. 0. 0. 0. 0. 0. 0. 0. 0. 0. 0. 0. 0. 0. 0. 0.
      0. 0. 0. 0. 0. 0. 0. 0. 0. 0. 0. 0. 0. 0. 0. 0. 0. 0. 0. 0. 0. 0.
      0. 0. 0. 0. 0. 0. 0. 0. 0. 0. 0. 0. 0. 0. 0. 0. 0. 0. 0. 0. 0. 0.
      0. 0. 0. 0. 0. 0. 0. 0. 0. 0. 0. 0. 0. 0. 0. 0. 0. 0. 0. 0. 0. 0.
      0. 0. 0. 0. 0. 0. 0. 0. 0. 0. 0. 0. 0.0666503906</_>
    <_>
      0. 0. 0. 0. 0. 0. 0. 0. 0.000193121508 0. 0. 0. 0. 0.
      0.000193121508 0. 0. 0. 0. 0. 0. 0. 0. 0. 0. 0. 0. 0. 0. 0. 0. 0.
      0. 0. 0. 0. 0. 0.00482803769 0.00675925286 0.00579364505
      0.0137116266 0. 0. 0.0604470335 0.07338617 0.0127460193 0. 0. 0.
      0.0299338344 0.00386243011 0. 0. 0. 0. 0. 0. 0. 0. 0. 0. 0. 0. 0.
      0. 0. 0. 0. 0. 0. 0. 0. 0. 0.00637300964 0.0216296092 0.184817284
      0.271142602 0. 0. 0.0113941692 0.00328306574 0.000193121508 0. 0.
      0. 0.00251057954 0. 0. 0. 0. 0. 0.000386243017 0. 0. 0. 0. 0. 0.
      0. 0. 0. 0. 0. 0. 0. 0. 0. 0. 0. 0.000772486033 0.0254920386
      0.42332235 0.0254920386 0. 0. 0.000193121508 0.000386243017
      0.000193121508 0. 0. 0. 0.000386243017 0.000193121508
      0.000772486033 0. 0. 0. 0.00115872908 0.00057936454 0.00115872908
      0.00173809356 0. 0. 0.000386243017 0.00251057954 0.00193121505 0.
      0. 0. 0. 0. 0. 0. 0. 0. 0.000772486033 0.0173809361 0.564687312
      0.0417142473 0. 0. 0. 0. 0.0152565995 0.00888358895 0.000386243017
      0. 0. 0. 0.0144841131 0.0142909912 0.000386243017 0. 0. 0.
      0.00328306574 0.036693085 0.000965607527 0. 0. 0. 0.000193121508
      0.00347618712 0.0142909912 0. 0. 0. 0. 0. 0.0177671779 0.
      0.000193121508 0.117610998 0.536684692 0.129005164 0.00270370115
      0. 0. 0.0133253839 0.216489211 0.00154497207 0. 0. 0. 0. 0. 0. 0.
      0. 0. 0. 0. 0. 0. 0. 0. 0. 0. 0. 0. 0. 0. 0. 0. 0. 0. 0. 0.
      0.0256851614 0.0780210868 0.0677856505 0.00212433655 0. 0. 0.
      0.017574057 0.000193121508 0. 0. 0. 0. 0. 0. 0. 0. 0. 0. 0. 0. 0.
      0. 0. 0. 0. 0. 0. 0. 0. 0. 0. 0. 0. 0. 0. 0. 0. 0. 0. 0. 0. 0. 0.
      0. 0. 0. 0. 0. 0. 0. 0. 0. 0. 0. 0. 0. 0. 0. 0. 0. 0. 0. 0. 0. 0.
      0. 0. 0. 0. 0. 0. 0. 0. 0. 0. 0. 0. 0. 0. 0. 0. 0. 0. 0. 0. 0. 0.
      0. 0. 0. 0. 0. 0. 0. 0. 0. 0. 0. 0. 0. 0. 0. 0. 0. 0. 0. 0. 0. 0.
      0. 0. 0. 0. 0. 0. 0. 0. 0. 0. 0. 0. 0. 0. 0. 0. 0. 0. 0. 0. 0. 0.
      0. 0. 0. 0. 0. 0. 0. 0. 0. 0. 0. 0. 0. 0. 0. 0. 0. 0. 0. 0. 0. 0.
      0. 0. 0. 0. 0. 0. 0. 0. 0. 0. 0. 0. 0. 0. 0. 0. 0. 0. 0. 0. 0. 0.
      0. 0. 0. 0. 0. 0. 0. 0. 0. 0. 0. 0. 0. 0. 0. 0. 0. 0. 0. 0. 0. 0.
      0. 0. 0. 0. 0. 0. 0. 0. 0. 0. 0. 0. 0. 0. 0. 0. 0.07421875</_>
    <_>
      0. 0.000195491157 0. 0. 0. 0. 0. 0.000390982314 0.000781964627 0.
      0. 0. 0. 0.000586473499 0. 0. 0. 0. 0. 0.000195491157 0. 0. 0. 0.
      0. 0. 0. 0. 0. 0. 0. 0. 0. 0. 0. 0. 0. 0.004691788 0.00273687625
      0.00723317266 0. 0. 0.002345894 0.0789784268 0.0144663453 0. 0. 0.
      0.0156392921 0.0551285073 0. 0. 0. 0. 0.00175942038 0.00136843813
      0. 0. 0. 0. 0. 0. 0. 0. 0. 0. 0. 0. 0. 0. 0. 0. 0.000195491157
      0.0246318858 0.267431915 0.201551378 0. 0. 0.00371433189
      0.0152483098 0.000390982314 0. 0. 0. 0.00136843813 0.000781964627
      0. 0. 0. 0. 0.000195491157 0.000586473499 0. 0. 0. 0. 0. 0. 0. 0.
      0. 0. 0. 0. 0. 0. 0. 0. 0. 0.021699518 0.466637403 0.00566924363
      0. 0. 0. 0.000195491157 0.000781964627 0. 0. 0. 0. 0.000781964627
      0. 0. 0. 0. 0.000390982314 0.000781964627 0.000586473499 0. 0. 0.
      0. 0. 0.00273687625 0. 0. 0. 0. 0. 0. 0. 0. 0. 0. 0.018767152
      0.577089906 0.0140753631 0. 0. 0. 0.000390982314 0.0222859923
      0.0130979074 0. 0. 0. 0. 0.00703768153 0.000977455755 0. 0. 0. 0.
      0.0324515328 0.0113384873 0. 0. 0. 0. 0.001172947 0.0398801975 0.
      0. 0. 0. 0. 0.00997004937 0.000195491157 0. 0. 0.0627526641
      0.374952048 0.045158457 0. 0. 0. 0.0338199697 0.304575235
      0.00195491151 0. 0. 0. 0. 0.00215040264 0. 0. 0. 0. 0. 0. 0. 0. 0.
      0. 0. 0. 0. 0. 0. 0. 0. 0. 0. 0. 0. 0. 0.0476998426 0.274078608
      0.0400756858 0. 0. 0. 0.021699518 0.042226091 0.000195491157 0. 0.
      0. 0. 0. 0. 0. 0. 0. 0. 0. 0. 0. 0. 0. 0. 0. 0. 0. 0. 0. 0. 0. 0.
      0. 0. 0. 0. 0. 0. 0. 0. 0. 0. 0. 0. 0. 0. 0. 0. 0. 0. 0. 0. 0. 0.
      0. 0. 0. 0. 0. 0. 0. 0. 0. 0. 0. 0. 0. 0. 0. 0. 0. 0. 0. 0. 0. 0.
      0. 0. 0. 0. 0. 0. 0. 0. 0. 0. 0. 0. 0. 0. 0. 0. 0. 0. 0. 0. 0. 0.
      0. 0. 0. 0. 0. 0. 0. 0. 0. 0. 0. 0. 0. 0. 0. 0. 0. 0. 0. 0. 0. 0.
      0. 0. 0. 0. 0. 0. 0. 0. 0. 0. 0. 0. 0. 0. 0. 0. 0. 0. 0. 0. 0. 0.
      0. 0. 0. 0. 0. 0. 0. 0. 0. 0. 0. 0. 0. 0. 0. 0. 0. 0. 0. 0. 0. 0.
      0. 0. 0. 0. 0. 0. 0. 0. 0. 0. 0. 0. 0. 0. 0. 0. 0. 0. 0. 0. 0. 0.
      0. 0. 0. 0. 0. 0. 0. 0. 0. 0. 0. 0. 0. 0. 0. 0. 0. 0. 0. 0. 0. 0.
      0. 0. 0. 0. 0. 0. 0.052734375</_>
    <_>
      0. 0. 0. 0. 0. 0.00386520871 0. 0.00193260435 0.00193260435
      0.000193260435 0. 0. 0. 0. 0.00135282311 0. 0. 0. 0. 0. 0. 0. 0.
      0. 0. 0. 0. 0. 0. 0. 0. 0. 0. 0. 0. 0. 0. 0.00695737544
      0.000966302177 0.0916054472 0.072859183 0. 0. 0.0630028993
      0.0384588279 0.0258968975 0.00850345939 0. 0. 0.0635826811
      0.0392318666 0.000193260435 0. 0. 0. 0.000193260435 0.000193260435
      0. 0. 0. 0. 0. 0. 0. 0. 0. 0. 0. 0. 0. 0. 0. 0. 0.00695737544
      0.031308189 0.569538474 0.0566253066 0.000579781306 0.
      0.00715063605 0.00173934386 0.00270564621 0. 0. 0. 0.00212586485
      0. 0. 0. 0. 0. 0.000386520871 0. 0. 0. 0. 0. 0. 0. 0. 0. 0. 0. 0.
      0. 0. 0. 0. 0. 0.00173934386 0.0143012721 0.24505423 0.0168136582
      0.000193260435 0. 0.000773041742 0.000193260435 0.00773041742 0.
      0. 0. 0.000579781306 0.000193260435 0.00599107333 0.000193260435
      0. 0. 0.00289890659 0.000773041742 0.00444498984 0.00773041742 0.
      0. 0.00135282311 0.00386520871 0.00154608348 0. 0. 0. 0. 0. 0. 0.
      0. 0. 0.00115956261 0.00483151106 0.0765311345 0.0303418878
      0.000966302177 0. 0. 0.000386520871 0.00792367756 0.00811693817
      0.000773041742 0. 0. 0. 0.00618433394 0.0152675742 0.000579781306
      0. 0. 0. 0.000966302177 0.0274429824 0.000966302177 0. 0. 0. 0.
      0.00328542734 0.0144945327 0. 0. 0. 0. 0. 0.01739344 0.
      0.000193260435 0.0556590036 0.65380007 0.154028565 0.0233845133 0.
      0. 0.00231912523 0.258389205 0.00212586485 0. 0. 0. 0.
      0.000579781306 0. 0. 0. 0. 0. 0. 0. 0. 0. 0. 0. 0. 0. 0. 0. 0. 0.
      0. 0. 0. 0. 0. 0.0235777739 0.208914533 0.0983695611 0.0297621079
      0. 0. 0.00231912523 0.0127551891 0. 0. 0. 0. 0. 0. 0. 0. 0. 0. 0.
      0. 0. 0. 0. 0. 0. 0. 0. 0. 0. 0. 0. 0. 0. 0. 0. 0. 0. 0. 0.
      0.00367194833 0. 0. 0. 0. 0. 0. 0. 0. 0. 0. 0. 0. 0. 0. 0. 0. 0.
      0. 0. 0. 0. 0. 0. 0. 0. 0. 0. 0. 0. 0. 0. 0. 0. 0. 0.
      0.00193260435 0. 0. 0. 0. 0. 0. 0. 0. 0. 0. 0. 0. 0. 0. 0. 0. 0.
      0. 0. 0. 0. 0. 0. 0. 0. 0. 0. 0. 0. 0. 0. 0. 0. 0. 0.
      0.000386520871 0. 0. 0. 0. 0. 0. 0. 0. 0. 0. 0. 0. 0. 0. 0. 0. 0.
      0. 0. 0. 0. 0. 0. 0. 0. 0. 0. 0. 0. 0. 0. 0. 0. 0. 0.
      0.000193260435 0. 0. 0. 0. 0. 0. 0. 0. 0. 0. 0. 0. 0. 0. 0. 0. 0.
      0. 0. 0. 0. 0. 0. 0. 0. 0. 0. 0. 0. 0. 0. 0. 0. 0. 0. 0. 0. 0. 0.
      0. 0. 0. 0. 0. 0. 0. 0. 0. 0. 0. 0. 0. 0. 0. 0. 0. 0. 0. 0. 0. 0.
      0. 0. 0. 0. 0. 0.0546875</_>
    <_>
      0. 0. 0. 0. 0. 0.0598670691 0. 0. 0.0014755968 0.00210799533 0. 0.
      0. 0. 0.000632398645 0.000421599078 0. 0. 0. 0. 0. 0. 0. 0. 0. 0.
      0. 0. 0. 0. 0. 0. 0. 0. 0. 0. 0. 0.00210799533 0.00632398622
      0.0014755968 0.0613426641 0.127955317 0. 0.0162315648 0.0845306143
      0.0484838933 0.0164423641 0.00822118204 0. 0.000210799539
      0.0535430834 0.0149667673 0. 0. 0. 0. 0. 0. 0. 0. 0. 0. 0. 0. 0.
      0. 0. 0. 0. 0. 0. 0. 0. 0.00168639631 0.00695638498 0.0419491082
      0.555245996 0.120788135 0. 0. 0.00252959458 0. 0.00126479729 0. 0.
      0.000421599078 0.000632398645 0. 0. 0. 0. 0. 0.000421599078 0. 0.
      0. 0. 0. 0. 0. 0. 0. 0. 0. 0. 0. 0. 0. 0. 0. 0.00189719582
      0.0164423641 0.222393513 0.0392087139 0. 0. 0.000210799539
      0.000210799539 0. 0. 0. 0.000843198155 0.00231879484 0.
      0.000210799539 0.00674558524 0. 0. 0. 0. 0.00674558524
      0.000843198155 0. 0. 0. 0. 0.000632398645 0. 0. 0. 0. 0. 0. 0. 0.
      0. 0.000843198155 0.0103291776 0.0600778684 0.0708286464 0. 0. 0.
      0.000210799539 0.0137019698 0.0236095488 0. 0. 0. 0.
      0.000210799539 0.00674558524 0. 0. 0. 0. 0.00843198132
      0.0293011367 0. 0. 0. 0. 0. 0.0472190976 0. 0. 0. 0. 0.
      0.000210799539 0. 0. 0. 0.0746230334 0.550186813 0.361521214 0. 0.
      0. 0.00316199311 0.237571076 0.00274039409 0. 0. 0. 0. 0. 0. 0. 0.
      0. 0. 0. 0. 0. 0. 0. 0. 0. 0. 0. 0. 0. 0. 0. 0. 0. 0. 0.
      0.0297227353 0.111934558 0.255489051 0. 0. 0. 0.00168639631
      0.012226373 0. 0. 0. 0. 0. 0. 0. 0. 0. 0. 0. 0. 0. 0. 0. 0. 0. 0.
      0. 0. 0. 0. 0. 0. 0. 0. 0. 0. 0. 0. 0.000843198155 0. 0. 0. 0. 0.
      0. 0. 0. 0. 0. 0. 0. 0. 0. 0. 0. 0. 0. 0. 0. 0. 0. 0. 0. 0. 0. 0.
      0. 0. 0. 0. 0. 0. 0. 0. 0.000421599078 0. 0. 0. 0. 0. 0. 0. 0. 0.
      0. 0. 0. 0. 0. 0. 0. 0. 0. 0. 0. 0. 0. 0. 0. 0. 0. 0. 0. 0. 0. 0.
      0. 0. 0. 0. 0. 0. 0. 0. 0. 0. 0. 0. 0. 0. 0. 0. 0. 0. 0. 0. 0. 0.
      0. 0. 0. 0. 0. 0. 0. 0. 0. 0. 0. 0. 0. 0. 0. 0. 0. 0. 0.0029511936
      0. 0. 0. 0. 0. 0. 0. 0. 0. 0. 0. 0. 0. 0. 0. 0. 0. 0. 0. 0. 0. 0.
      0. 0. 0. 0. 0. 0. 0. 0. 0. 0. 0. 0. 0. 0. 0. 0. 0. 0. 0. 0. 0. 0.
      0. 0. 0. 0. 0. 0. 0. 0. 0. 0. 0. 0. 0. 0. 0. 0. 0. 0. 0. 0. 0. 0.
      0.0713500977</_>
    <_>
      0. 0. 0. 0. 0. 0.0460507646 0. 0. 0.00443608267 0.00105621014
      0.000211242033 0. 0. 0. 0.00147869426 0.000633726129 0. 0. 0. 0.
      0. 0. 0. 0. 0. 0. 0. 0. 0. 0. 0. 0. 0. 0. 0. 0. 0. 0.000211242033
      0.00506980903 0.00126745226 0.0583028011 0.149981841 0.
      0.010773344 0.0819619074 0.0456282794 0.019856751 0.0109845856 0.
      0.00105621014 0.0642175749 0.0173218474 0. 0. 0. 0. 0. 0. 0. 0. 0.
      0. 0. 0. 0. 0. 0. 0. 0. 0. 0. 0. 0. 0. 0.00633726083 0.0382348076
      0.52451396 0.12252038 0. 0.000211242033 0.00126745226 0.
      0.00274614641 0. 0. 0.000422484067 0.000211242033 0. 0. 0. 0.
      0.000422484067 0. 0. 0. 0. 0. 0. 0. 0. 0. 0. 0. 0. 0. 0. 0. 0. 0.
      0. 0.00190117827 0.0194342677 0.277994514 0.0500643626 0. 0.
      0.000844968134 0. 0. 0. 0. 0.000422484067 0.00274614641 0.
      0.000211242033 0.00401359843 0. 0. 0. 0. 0.00380235654
      0.00126745226 0. 0. 0. 0. 0.00211242028 0. 0. 0. 0. 0. 0. 0. 0. 0.
      0.000844968134 0.0111958282 0.0433046184 0.0656962693 0. 0. 0.
      0.000422484067 0.0168993622 0.0226028971 0. 0. 0. 0.
      0.000633726129 0.00760471309 0. 0. 0. 0. 0.00866092369
      0.0314750634 0. 0. 0. 0. 0. 0.047529459 0. 0. 0. 0. 0.
      0.000211242033 0. 0. 0.000211242033 0.0764696151 0.559580147
      0.376433313 0. 0. 0. 0.00464732479 0.192441493 0.00359111466 0. 0.
      0. 0. 0. 0. 0. 0. 0. 0. 0. 0. 0. 0. 0. 0. 0. 0. 0. 0. 0. 0. 0. 0.
      0. 0. 0. 0.0270389803 0.117450573 0.251800507 0. 0. 0. 0.
      0.00591477705 0. 0. 0. 0. 0. 0. 0. 0. 0. 0. 0. 0. 0. 0. 0. 0. 0.
      0. 0. 0. 0. 0. 0. 0. 0. 0. 0. 0. 0. 0. 0.00190117827 0. 0. 0. 0.
      0. 0. 0. 0. 0. 0. 0. 0. 0. 0. 0. 0. 0. 0. 0. 0. 0. 0. 0. 0. 0. 0.
      0. 0. 0. 0. 0. 0. 0. 0. 0. 0.000422484067 0. 0. 0. 0. 0. 0. 0. 0.
      0. 0. 0. 0. 0. 0. 0. 0. 0. 0. 0. 0. 0. 0. 0. 0. 0. 0. 0. 0. 0. 0.
      0. 0. 0. 0. 0. 0. 0. 0. 0. 0. 0. 0. 0. 0. 0. 0. 0. 0. 0. 0. 0. 0.
      0. 0. 0. 0. 0. 0. 0. 0. 0. 0. 0. 0. 0. 0. 0. 0. 0. 0. 0.
      0.00380235654 0. 0. 0. 0. 0. 0. 0. 0. 0. 0. 0. 0. 0. 0. 0. 0. 0.
      0. 0. 0. 0. 0. 0. 0. 0. 0. 0. 0. 0. 0. 0. 0. 0. 0. 0. 0. 0. 0. 0.
      0. 0. 0. 0. 0. 0. 0. 0. 0. 0. 0. 0. 0. 0. 0. 0. 0. 0. 0. 0. 0. 0.
      0. 0. 0. 0. 0. 0.0767822266</_>
    <_>
      0. 0. 0. 0. 0. 0. 0. 0. 0. 0. 0. 0. 0. 0. 0. 0. 0. 0. 0. 0. 0. 0.
      0. 0. 0. 0. 0. 0. 0. 0. 0. 0. 0. 0. 0. 0. 0. 0. 0.165386856
      0.0069517442 0. 0. 0. 0. 0.0784092098 0.00032333695 0. 0. 0. 0. 0.
      0. 0. 0. 0. 0. 0. 0. 0. 0. 0. 0. 0. 0. 0. 0. 0. 0. 0. 0. 0. 0. 0.
      0. 0.784900427 0.0324953645 0. 0. 0. 0. 0.0248969458 0. 0. 0. 0.
      0. 0.00080834236 0. 0. 0. 0. 0. 0. 0. 0. 0. 0. 0. 0. 0. 0. 0. 0.
      0. 0. 0. 0. 0. 0. 0. 0.15439339 0.00194002176 0. 0. 0. 0.
      0.00485005416 0.00032333695 0. 0. 0. 0. 0. 0. 0. 0. 0. 0.
      0.00145501632 0.00646673888 0. 0. 0. 0. 0.00080834236 0. 0. 0. 0.
      0. 0. 0.000161668475 0. 0. 0. 0.00080834236 0.0507639013
      0.00113167928 0. 0. 0. 0. 0.0122868037 0.00986177661 0. 0. 0. 0.
      0.00646673888 0.00080834236 0. 0. 0. 0. 0.0269986354 0.00339503796
      0. 0. 0. 0. 0.000485005439 0.0323336944 0. 0. 0. 0. 0.
      0.00921510346 0.000161668475 0. 0. 0.053512264 0.301673383
      0.0320103578 0. 0. 0. 0.0282919835 0.292134941 0.000485005439 0.
      0. 0. 0. 0.00113167928 0. 0. 0. 0. 0. 0. 0. 0. 0. 0. 0. 0. 0. 0.
      0. 0. 0. 0. 0. 0. 0. 0. 0.0562606305 0.363430738 0.0378304236 0.
      0. 0. 0.0169751905 0.0452671722 0.000485005439 0. 0. 0. 0. 0. 0.
      0. 0. 0. 0. 0. 0. 0. 0. 0. 0. 0. 0. 0. 0. 0. 0. 0. 0. 0. 0. 0. 0.
      0. 0. 0. 0. 0. 0. 0. 0. 0. 0. 0. 0. 0. 0. 0. 0. 0. 0. 0. 0. 0. 0.
      0. 0. 0. 0. 0. 0. 0. 0. 0. 0. 0. 0. 0. 0. 0. 0. 0. 0. 0. 0. 0. 0.
      0. 0. 0. 0. 0. 0. 0. 0. 0. 0. 0. 0. 0. 0. 0. 0. 0. 0. 0. 0. 0. 0.
      0. 0. 0. 0. 0. 0. 0. 0. 0. 0. 0. 0. 0. 0. 0. 0. 0. 0. 0. 0. 0. 0.
      0. 0. 0. 0. 0. 0. 0. 0. 0. 0. 0. 0. 0. 0. 0. 0. 0. 0. 0. 0. 0. 0.
      0. 0. 0. 0. 0. 0. 0. 0. 0. 0. 0. 0. 0. 0. 0. 0. 0. 0. 0. 0. 0. 0.
      0. 0. 0. 0. 0. 0. 0. 0. 0. 0. 0. 0. 0. 0. 0. 0. 0. 0. 0. 0. 0. 0.
      0. 0. 0. 0. 0. 0. 0. 0. 0. 0. 0. 0. 0. 0. 0. 0. 0. 0. 0. 0. 0. 0.
      0. 0. 0.0411987305</_>
    <_>
      0. 0. 0. 0. 0. 0. 0. 0. 0. 0. 0. 0. 0. 0. 0. 0. 0. 0. 0. 0. 0. 0.
      0. 0. 0. 0. 0. 0. 0. 0. 0. 0. 0. 0. 0. 0. 0. 0. 0. 0.15172942
      0.0926383883 0. 0. 0. 0. 0.0260545462 0.00289494963 0. 0. 0. 0. 0.
      0. 0. 0. 0. 0. 0. 0. 0. 0. 0. 0. 0. 0. 0. 0. 0. 0. 0. 0. 0. 0. 0.
      0. 0.620200396 0.179827452 0. 0. 0. 0. 0.0103877606 0.00136232923
      0. 0. 0. 0. 0. 0. 0. 0. 0. 0. 0. 0. 0. 0. 0. 0. 0. 0. 0. 0. 0. 0.
      0. 0. 0. 0. 0. 0.000170291154 0.106261678 0.0119203804 0. 0. 0. 0.
      0.00272465847 0.00340582314 0. 0. 0. 0. 0. 0.000170291154 0. 0. 0.
      0. 0. 0.00936601311 0. 0. 0. 0. 0. 0. 0. 0. 0. 0. 0. 0. 0. 0. 0.
      0.000340582308 0.0374640524 0.00476815226 0. 0. 0. 0.
      0.00885513984 0.0168588236 0. 0. 0. 0. 0.00357611431 0.0010217469
      0. 0. 0. 0. 0.0100471778 0.0219675582 0.000340582308 0. 0. 0. 0.
      0.000340582308 0.0379749276 0. 0. 0. 0. 0. 0.00527902599 0. 0.
      0.141682237 0.636037469 0.133337975 0.0059601902 0. 0.
      0.0318444446 0.280469537 0.00204349379 0. 0. 0. 0. 0.000510873448
      0. 0. 0. 0. 0. 0. 0. 0. 0. 0. 0. 0. 0. 0. 0. 0. 0. 0. 0. 0. 0. 0.
      0.0134530012 0.0980877057 0.0517685115 0.0010217469 0. 0.
      0.000851455785 0.0248625092 0.000170291154 0. 0. 0. 0. 0. 0. 0. 0.
      0. 0. 0. 0. 0. 0. 0. 0. 0. 0. 0. 0. 0. 0. 0. 0. 0. 0. 0. 0. 0. 0.
      0. 0. 0. 0. 0. 0. 0. 0. 0. 0. 0. 0. 0. 0. 0. 0. 0. 0. 0. 0. 0. 0.
      0. 0. 0. 0. 0. 0. 0. 0. 0. 0. 0. 0. 0. 0. 0. 0. 0. 0. 0. 0. 0. 0.
      0. 0. 0. 0. 0. 0. 0. 0. 0. 0. 0. 0. 0. 0. 0. 0. 0. 0. 0. 0. 0. 0.
      0. 0. 0. 0. 0. 0. 0. 0. 0. 0. 0. 0. 0. 0. 0. 0. 0. 0. 0. 0. 0. 0.
      0. 0. 0. 0. 0. 0. 0. 0. 0. 0. 0. 0. 0. 0. 0. 0. 0. 0. 0. 0. 0. 0.
      0. 0. 0. 0. 0. 0. 0. 0. 0. 0. 0. 0. 0. 0. 0. 0. 0. 0. 0. 0. 0. 0.
      0. 0. 0. 0. 0. 0. 0. 0. 0. 0. 0. 0. 0. 0. 0. 0. 0. 0. 0. 0. 0. 0.
      0. 0. 0. 0. 0. 0. 0. 0. 0. 0. 0. 0. 0. 0. 0. 0. 0. 0. 0. 0. 0.
      0.0628662109</_>
    <_>
      0. 0. 0. 0. 0. 0. 0. 0. 0. 0. 0. 0. 0. 0. 0. 0. 0. 0. 0. 0. 0. 0.
      0. 0. 0. 0. 0. 0. 0. 0. 0. 0. 0. 0. 0. 0. 0. 0. 0.192036554
      0.00475175772 0. 0. 0. 0. 0.060134314 0. 0. 0. 0. 0. 0. 0. 0. 0.
      0. 0. 0. 0. 0. 0. 0. 0. 0. 0. 0. 0. 0. 0. 0. 0. 0. 0. 0. 0.
      0.742257357 0.0145829814 0. 0. 0. 0. 0.0262165964 0. 0. 0. 0. 0.
      0. 0. 0. 0. 0. 0. 0. 0. 0. 0. 0. 0. 0. 0. 0. 0. 0. 0. 0. 0. 0. 0.
      0. 0.000163853721 0.113550626 0.00229395204 0. 0. 0. 0.
      0.00655414909 0.000327707443 0. 0. 0. 0. 0. 0. 0. 0. 0. 0.
      0.000491561135 0.00852039363 0. 0. 0. 0. 0. 0. 0. 0. 0. 0. 0.
      0.000163853721 0. 0. 0. 0.000491561135 0.04096343 0.000983122271
      0. 0. 0. 0.000163853721 0.0122890295 0.00983122364 0. 0. 0. 0.
      0.00639029499 0.000819268636 0. 0. 0. 0. 0.02556118 0.00426019682
      0. 0. 0. 0. 0.00147468352 0.0339177214 0. 0. 0. 0. 0.
      0.00802883226 0.000163853721 0. 0. 0.071604073 0.388005614
      0.0412911363 0. 0. 0. 0.0517777763 0.331639946 0.00245780591 0. 0.
      0. 0. 0.00163853727 0. 0. 0. 0. 0. 0. 0. 0. 0. 0. 0. 0. 0. 0. 0.
      0. 0. 0. 0. 0. 0. 0. 0.0371947959 0.339832604 0.0334261581 0. 0.
      0. 0.0196624473 0.0483368486 0.000327707443 0. 0. 0. 0. 0. 0. 0.
      0. 0. 0. 0. 0. 0. 0. 0. 0. 0. 0. 0. 0. 0. 0. 0. 0. 0. 0. 0. 0. 0.
      0. 0. 0. 0. 0. 0. 0. 0. 0. 0. 0. 0. 0. 0. 0. 0. 0. 0. 0. 0. 0. 0.
      0. 0. 0. 0. 0. 0. 0. 0. 0. 0. 0. 0. 0. 0. 0. 0. 0. 0. 0. 0. 0. 0.
      0. 0. 0. 0. 0. 0. 0. 0. 0. 0. 0. 0. 0. 0. 0. 0. 0. 0. 0. 0. 0. 0.
      0. 0. 0. 0. 0. 0. 0. 0. 0. 0. 0. 0. 0. 0. 0. 0. 0. 0. 0. 0. 0. 0.
      0. 0. 0. 0. 0. 0. 0. 0. 0. 0. 0. 0. 0. 0. 0. 0. 0. 0. 0. 0. 0. 0.
      0. 0. 0. 0. 0. 0. 0. 0. 0. 0. 0. 0. 0. 0. 0. 0. 0. 0. 0. 0. 0. 0.
      0. 0. 0. 0. 0. 0. 0. 0. 0. 0. 0. 0. 0. 0. 0. 0. 0. 0. 0. 0. 0. 0.
      0. 0. 0. 0. 0. 0. 0. 0. 0. 0. 0. 0. 0. 0. 0. 0. 0. 0. 0. 0. 0. 0.
      0. 0.0443115234</_>
    <_>
      0.00381170749 0.0013613241 0.000816794462 0. 0. 0. 0.00272264821
      0.0070788851 0.00490076654 0. 0. 0. 0.00490076654 0.0234147739 0.
      0. 0. 0. 0.00108905928 0.00598982628 0. 0. 0. 0. 0. 0. 0. 0. 0. 0.
      0. 0. 0. 0. 0. 0. 0.0103460634 0.0136132408 0.00762341497
      0.00462850183 0. 0. 0.0100737987 0.129598051 0.092025511
      0.0615318492 0. 0. 0.0117073869 0.227068856 0.0130687114
      0.0144300358 0. 0. 0.00544529641 0.0604427904 0. 0. 0. 0.
      0.000816794462 0.000544529641 0. 0. 0. 0. 0.000272264821 0. 0. 0.
      0. 0. 0.0223257151 0.0364834853 0.0157913603 0.00272264821 0. 0.
      0.0168804191 0.0299491305 0.00626209099 0.000816794462 0. 0.
      0.0013613241 0.00517303171 0.00245038327 0.000272264821 0. 0.
      0.0013613241 0.00871247426 0. 0. 0. 0. 0. 0.000816794462 0. 0. 0.
      0. 0. 0. 0. 0. 0. 0. 0.00871247426 0.00871247426 0.00490076654
      0.00108905928 0. 0. 0.00353944255 0.00163358892 0.00190585374 0.
      0. 0. 0. 0. 0. 0. 0. 0. 0. 0.00108905928 0.00217811856
      0.00517303171 0. 0. 0. 0. 0.0144300358 0.00490076654 0. 0. 0. 0.
      0. 0.000272264821 0. 0. 0.0136132408 0.0193308014 0.0070788851
      0.00245038327 0.000272264821 0. 0.00653435569 0.00245038327
      0.00245038327 0.0138855055 0.00217811856 0. 0.000272264821
      0.000272264821 0.00653435569 0.0117073869 0. 0. 0. 0.0013613241
      0.018786272 0.0179694779 0.00571756111 0. 0. 0. 0.00571756111
      0.0304936599 0.0068066204 0. 0. 0. 0. 0.0234147739 0.000272264821
      0. 0.0171526838 0.0533639044 0.126330882 0.0381170735 0.0468295477
      0. 0.0536361709 0.0746005625 0.26300782 0.0784122646
      0.000272264821 0. 0.0438346379 0.0157913603 0.00108905928
      0.000544529641 0. 0. 0.00544529641 0.000544529641 0.000544529641
      0. 0. 0. 0.000544529641 0. 0. 0. 0. 0. 0. 0. 0. 0. 0. 0.
      0.0209643915 0.0577201433 0.171799108 0.109722726 0.121702373 0.
      0.137766004 0.241226628 0.47265172 0.566583097 0.0413842537 0.
      0.25102815 0.219173178 0.000816794462 0. 0. 0. 0.0579924062
      0.00789568014 0. 0. 0. 0. 0.00245038327 0. 0. 0. 0. 0. 0. 0. 0. 0.
      0. 0. 0.0068066204 0.000544529641 0. 0. 0. 0. 0.0100737987
      0.00190585374 0. 0. 0. 0. 0.00326717785 0.000272264821 0. 0. 0. 0.
      0.000816794462 0. 0. 0. 0. 0. 0. 0. 0. 0. 0. 0. 0. 0. 0. 0. 0. 0.
      0.00326717785 0. 0. 0. 0. 0. 0. 0. 0. 0. 0. 0. 0. 0. 0. 0. 0. 0.
      0. 0. 0. 0. 0. 0. 0. 0. 0. 0. 0. 0. 0. 0. 0. 0. 0. 0.
      0.000816794462 0. 0. 0. 0. 0. 0. 0. 0. 0. 0. 0. 0. 0. 0. 0. 0. 0.
      0. 0. 0. 0. 0. 0. 0. 0. 0. 0. 0. 0. 0. 0. 0. 0. 0. 0. 0.0013613241
      0. 0. 0. 0. 0. 0. 0. 0. 0. 0. 0. 0. 0. 0. 0. 0. 0. 0. 0. 0. 0. 0.
      0. 0. 0. 0. 0. 0. 0. 0. 0. 0. 0. 0. 0. 0.00108905928
      0.000272264821 0.000272264821 0. 0. 0. 0. 0. 0. 0. 0. 0. 0. 0. 0.
      0. 0. 0. 0.000272264821 0. 0. 0. 0. 0. 0. 0. 0. 0. 0. 0. 0. 0. 0.
      0. 0. 0. 0.0699462891</_>
    <_>
      0. 0. 0.00315708108 0.0002630901 0.0002630901 0.0105236042 0. 0.
      0.0155223161 0.00447253184 0.00184163067 0. 0. 0. 0.00157854054 0.
      0. 0. 0. 0. 0. 0. 0. 0. 0. 0. 0. 0. 0. 0. 0. 0. 0. 0. 0. 0. 0.
      0.0021047208 0.0234150197 0.031833902 0.039989695 0.0107866945 0.
      0.0021047208 0.178638175 0.225994393 0.0563012809 0.0305184517 0.
      0. 0.0347278938 0.0192055777 0.0002630901 0. 0. 0. 0. 0. 0. 0. 0.
      0. 0. 0. 0. 0. 0. 0. 0. 0. 0. 0. 0. 0.00394635135 0.0634047166
      0.0428836867 0.0168377664 0.0105236042 0. 0.0005261802
      0.0218364783 0.0231519286 0.00473562162 0.0010523604 0. 0.
      0.00762961293 0.00368326134 0. 0. 0. 0. 0. 0. 0. 0. 0. 0. 0. 0. 0.
      0. 0. 0. 0. 0. 0. 0. 0. 0.00605107239 0.0270982794 0.011312874
      0.00631416216 0.0042094416 0. 0. 0.0005261802 0. 0.0005261802 0.
      0. 0. 0. 0. 0. 0.00289399107 0. 0. 0. 0. 0.0163115859
      0.00631416216 0. 0. 0. 0. 0. 0.0002630901 0. 0. 0. 0. 0. 0. 0.
      0.00736652268 0.0294660907 0.0210472085 0.00762961293
      0.00973433349 0. 0. 0. 0.00342017133 0.00131545053 0.0228888392 0.
      0. 0. 0.00184163067 0.0118390545 0.0207841173 0. 0. 0. 0.
      0.0084188832 0.0342017114 0. 0. 0. 0. 0. 0.032886263 0. 0. 0. 0.
      0. 0. 0. 0.0278875511 0.100237325 0.269930452 0.526706398
      0.409105092 0. 0.0249935593 0.173902556 0.0973433405 0.13917467
      0.132597417 0. 0. 0. 0.0002630901 0. 0. 0. 0. 0. 0. 0. 0. 0. 0. 0.
      0. 0. 0. 0. 0. 0. 0. 0. 0. 0. 0.0126283243 0.0539334714
      0.0526180193 0.165483668 0.421996534 0. 0.0105236042 0.233097821
      0.0828733817 0.0634047166 0.107603848 0. 0. 0.00184163067 0. 0. 0.
      0. 0. 0. 0. 0. 0. 0. 0. 0. 0. 0. 0. 0. 0. 0. 0. 0. 0. 0. 0. 0. 0.
      0. 0.00157854054 0. 0. 0.0010523604 0. 0. 0. 0. 0. 0. 0. 0. 0. 0.
      0. 0. 0. 0. 0. 0. 0. 0. 0. 0. 0. 0. 0. 0. 0. 0. 0. 0. 0. 0. 0. 0.
      0.00315708108 0. 0. 0. 0. 0. 0. 0. 0. 0. 0. 0. 0. 0. 0. 0. 0. 0.
      0. 0. 0. 0. 0. 0. 0. 0. 0. 0. 0. 0. 0. 0. 0. 0. 0. 0. 0.0002630901
      0. 0. 0. 0. 0. 0. 0. 0. 0. 0. 0. 0. 0. 0. 0. 0. 0. 0. 0. 0. 0. 0.
      0. 0. 0. 0. 0. 0. 0. 0. 0. 0. 0. 0. 0. 0.00789270271 0. 0. 0. 0.
      0. 0. 0. 0. 0. 0. 0. 0. 0. 0. 0. 0. 0. 0. 0. 0. 0. 0. 0. 0. 0. 0.
      0. 0. 0. 0. 0. 0. 0. 0. 0. 0. 0. 0. 0. 0. 0. 0. 0. 0. 0. 0. 0. 0.
      0. 0. 0. 0. 0. 0. 0. 0. 0. 0. 0. 0. 0. 0. 0. 0. 0. 0. 0.0977172852</_>
    <_>
      0. 0. 0.000618390739 0.000206130237 0. 0.00639003748 0. 0.
      0.00494712591 0.00103065115 0. 0. 0. 0. 0.000824520946 0. 0. 0. 0.
      0. 0. 0. 0. 0. 0. 0. 0. 0. 0. 0. 0. 0. 0. 0. 0. 0. 0.
      0.000412260473 0.0113371629 0.005153256 0.0105126416 0.00247356296
      0. 0.000412260473 0.120792322 0.087399222 0.0202007629
      0.00453486526 0. 0.000206130237 0.0138107259 0.00453486526 0. 0.
      0. 0. 0. 0. 0. 0. 0. 0. 0. 0. 0. 0. 0. 0. 0. 0. 0. 0. 0.
      0.00164904189 0.0253540184 0.0189639814 0.00968812127
      0.00247356296 0. 0.000824520946 0.0144291166 0.0136045953
      0.00680229766 0. 0. 0. 0.00577164674 0.00144291169 0. 0. 0. 0. 0.
      0. 0. 0. 0. 0. 0. 0. 0. 0. 0. 0. 0. 0. 0. 0. 0. 0.000206130237
      0.0257662795 0.00391647452 0.00412260462 0.00123678148 0. 0.
      0.00267969305 0.000206130237 0.000412260473 0. 0. 0. 0. 0. 0.
      0.00247356296 0. 0. 0. 0. 0.00968812127 0.00329808379 0. 0. 0. 0.
      0.00906973053 0.00206130231 0. 0. 0. 0. 0. 0. 0. 0.00164904189
      0.0265907999 0.00618390692 0.0074206884 0.00659616757 0.
      0.000412260473 0.00474099535 0.00659616757 0.00164904189
      0.0173149407 0. 0. 0. 0.00123678148 0.00845133979 0.01669655 0. 0.
      0. 0. 0.00659616757 0.00577164674 0. 0. 0. 0. 0.010306512
      0.0290643629 0. 0. 0. 0. 0. 0. 0. 0.0117494231 0.0511202998
      0.272091925 0.561086476 0.528517902 0. 0.00845133979 0.0878114775
      0.059983898 0.0843072683 0.11502067 0. 0. 0.000412260473
      0.000206130237 0. 0. 0. 0. 0. 0. 0. 0. 0. 0. 0. 0. 0. 0. 0. 0. 0.
      0. 0. 0. 0. 0.00453486526 0.0251478888 0.0445241295 0.135015309
      0.476366967 0. 0.00412260462 0.0927586034 0.0352482721
      0.0651371554 0.084513396 0. 0. 0.000618390739 0. 0. 0. 0. 0. 0. 0.
      0. 0. 0. 0. 0. 0. 0. 0. 0. 0. 0. 0. 0. 0. 0. 0.000206130237
      0.00103065115 0. 0. 0.00267969305 0. 0. 0.000206130237 0. 0. 0. 0.
      0. 0. 0. 0. 0. 0. 0. 0. 0. 0. 0. 0. 0. 0. 0. 0. 0. 0. 0. 0. 0. 0.
      0. 0. 0. 0. 0. 0. 0.00206130231 0. 0. 0. 0. 0. 0. 0. 0. 0. 0. 0.
      0. 0. 0. 0. 0. 0. 0. 0. 0. 0. 0. 0. 0. 0. 0. 0. 0. 0. 0. 0. 0. 0.
      0. 0. 0. 0. 0. 0. 0. 0. 0. 0. 0. 0. 0. 0. 0. 0. 0. 0. 0. 0. 0. 0.
      0. 0. 0. 0. 0. 0. 0. 0. 0. 0. 0. 0. 0. 0.000206130237 0. 0.
      0.00288582337 0. 0. 0. 0. 0. 0. 0. 0. 0. 0. 0. 0. 0. 0. 0. 0. 0.
      0. 0. 0. 0. 0. 0. 0. 0. 0. 0. 0. 0. 0. 0. 0. 0. 0. 0. 0. 0. 0. 0.
      0. 0. 0. 0. 0. 0. 0. 0. 0. 0. 0. 0. 0. 0. 0. 0. 0. 0. 0. 0. 0. 0.
      0. 0. 0. 0. 0. 0.0807495117</_>
    <_>
      0. 0. 0. 0. 0. 0.000214798201 0. 0. 0. 0. 0. 0. 0. 0. 0. 0. 0. 0.
      0. 0. 0. 0. 0. 0. 0. 0. 0. 0. 0. 0. 0. 0. 0. 0. 0. 0. 0. 0.
      0.00150358747 0.0180430487 0.000644394604 0. 0. 0. 0.0476852022
      0.0429596417 0.0131026907 0. 0. 0. 0. 0. 0. 0. 0. 0. 0. 0. 0. 0.
      0. 0. 0. 0. 0. 0. 0. 0. 0. 0. 0. 0. 0. 0. 0.00343677122
      0.0320049338 0. 0. 0. 0. 0.0120286997 0.00773273502 0. 0. 0. 0.
      0.00107399095 0.000859192805 0.000644394604 0. 0. 0. 0. 0. 0. 0.
      0. 0. 0. 0. 0. 0. 0. 0. 0. 0. 0. 0. 0. 0.000214798201
      0.00279237656 0.0118139014 0. 0. 0. 0. 0.000214798201
      0.000429596403 0. 0. 0. 0. 0.00128878921 0.00257757842
      0.0021479819 0. 0. 0. 0.000214798201 0.00601434987 0.010525112 0.
      0. 0. 0. 0.000214798201 0. 0. 0. 0. 0. 0. 0. 0. 0. 0.00150358747
      0.00708834082 0.0122434972 0.000214798201 0. 0. 0.00107399095
      0.00429596379 0.00451076217 0.00429596379 0.00128878921 0.
      0.00107399095 0.00107399095 0.00945112109 0.00859192759
      0.00300717494 0. 0.00193318375 0.000859192805 0.00687354244
      0.0199762322 0.00429596379 0. 0.00236278027 0.00386636751
      0.00257757842 0.000859192805 0.0100955153 0. 0. 0.000429596403
      0.00386636751 0.00622914778 0.0184726454 0. 0.000644394604
      0.173771739 0.310383409 0.266349763 0.0300717484 0. 0.0219094157
      0.0751793683 0.336159199 0.273008525 0.00171838561 0. 0.0146062775
      0. 0. 0.000859192805 0. 0. 0.00128878921 0. 0. 0. 0. 0.
      0.000214798201 0. 0. 0. 0. 0. 0. 0. 0. 0. 0. 0. 0. 0.053055156
      0.0842008963 0.224249318 0.225752905 0. 0.0302865468 0.0418856479
      0.202554703 0.661578476 0.0622914769 0. 0.0607878901 0.00343677122
      0. 0. 0. 0. 0. 0. 0. 0. 0. 0. 0. 0. 0. 0. 0. 0. 0. 0. 0. 0. 0. 0.
      0. 0. 0. 0. 0. 0. 0. 0. 0. 0. 0. 0. 0. 0. 0. 0. 0. 0. 0. 0. 0. 0.
      0. 0. 0. 0. 0. 0. 0. 0. 0. 0. 0. 0. 0. 0. 0. 0. 0. 0. 0. 0. 0. 0.
      0. 0. 0. 0. 0. 0. 0. 0. 0. 0. 0. 0. 0. 0. 0. 0. 0. 0. 0. 0. 0. 0.
      0. 0. 0. 0. 0. 0. 0. 0. 0. 0. 0. 0. 0. 0. 0. 0. 0. 0. 0. 0. 0. 0.
      0. 0. 0. 0. 0. 0. 0. 0. 0. 0. 0. 0. 0. 0. 0. 0. 0. 0. 0. 0. 0. 0.
      0. 0. 0. 0. 0. 0. 0. 0. 0. 0. 0. 0. 0. 0. 0. 0. 0. 0. 0. 0. 0. 0.
      0. 0. 0. 0. 0. 0. 0. 0. 0. 0. 0. 0. 0. 0. 0. 0. 0.000214798201 0.
      0. 0. 0. 0. 0. 0. 0. 0. 0. 0. 0. 0. 0. 0. 0. 0. 0. 0. 0. 0. 0. 0.
      0. 0. 0. 0. 0. 0. 0. 0.0827026367</_>
    <_>
      0. 0. 0. 0. 0. 0.0049395496 0. 0. 0. 0. 0. 0. 0. 0. 0. 0. 0. 0. 0.
      0. 0. 0. 0. 0. 0. 0. 0. 0. 0. 0. 0. 0. 0. 0. 0. 0. 0. 0. 0.
      0.00749448873 0.0120933801 0.00442856178 0. 0. 0.000510987884
      0.0289559793 0.010390087 0.00238461001 0. 0. 0.000170329295
      0.000170329295 0. 0. 0. 0. 0. 0. 0. 0. 0. 0. 0. 0. 0. 0. 0. 0. 0.
      0. 0. 0. 0. 0. 0. 0.00630218396 0.0126043679 0.00340658589 0. 0.
      0.00102197577 0.00885712355 0.00391757395 0. 0. 0. 0.000340658589
      0.00102197577 0. 0. 0. 0. 0. 0. 0. 0. 0. 0. 0. 0. 0. 0. 0. 0. 0.
      0. 0. 0. 0. 0. 0. 0.00374724437 0.00408790307 0.00187362218 0. 0.
      0.000170329295 0.000681317179 0.000340658589 0. 0. 0. 0. 0.
      0.000170329295 0.00204395154 0. 0. 0. 0. 0.00374724437
      0.00238461001 0. 0. 0. 0. 0.000851646473 0.00340658589 0. 0. 0. 0.
      0. 0. 0. 0. 0.00136263436 0.00647251308 0.00562086655
      0.00613185484 0. 0. 0.001192305 0.00545053743 0.00323625654
      0.0136263436 0. 0. 0. 0. 0.00664284267 0.0170329288 0. 0. 0. 0.
      0.00408790307 0.0107307453 0. 0. 0. 0. 0.00800547656 0.0258900523
      0. 0. 0. 0. 0. 0. 0. 0. 0.00323625654 0.224323675 0.475389063
      0.428037524 0. 0. 0.0245274194 0.018225234 0.0545053743
      0.121104129 0. 0. 0.00102197577 0.000340658589 0. 0. 0. 0. 0. 0.
      0. 0. 0. 0. 0. 0. 0. 0. 0. 0. 0. 0. 0. 0. 0. 0. 0.00255493936
      0.0608075596 0.151593074 0.677229285 0. 0. 0.0451372638
      0.0257197227 0.0505877994 0.167774349 0. 0. 0. 0. 0. 0. 0. 0. 0.
      0. 0. 0. 0. 0. 0. 0. 0. 0. 0. 0. 0. 0. 0. 0. 0. 0. 0. 0. 0.
      0.00425823219 0. 0. 0. 0. 0. 0. 0. 0. 0. 0. 0. 0. 0. 0. 0. 0. 0.
      0. 0. 0. 0. 0. 0. 0. 0. 0. 0. 0. 0. 0. 0. 0. 0. 0. 0.
      0.00357691525 0. 0. 0. 0. 0. 0. 0. 0. 0. 0. 0. 0. 0. 0. 0. 0. 0.
      0. 0. 0. 0. 0. 0. 0. 0. 0. 0. 0. 0. 0. 0. 0. 0. 0. 0. 0. 0. 0. 0.
      0. 0. 0. 0. 0. 0. 0. 0. 0. 0. 0. 0. 0. 0. 0. 0. 0. 0. 0. 0. 0. 0.
      0. 0. 0. 0. 0. 0. 0. 0. 0. 0. 0.00272526871 0. 0. 0. 0. 0. 0. 0.
      0. 0. 0. 0. 0. 0. 0. 0. 0. 0. 0. 0. 0. 0. 0. 0. 0. 0. 0. 0. 0. 0.
      0. 0. 0. 0. 0. 0. 0. 0. 0. 0. 0. 0. 0. 0. 0. 0. 0. 0. 0. 0. 0. 0.
      0. 0. 0. 0. 0. 0. 0. 0. 0. 0. 0. 0. 0. 0. 0. 0.0803833008</_>
    <_>
      0. 0. 0. 0. 0. 0.0131292865 0. 0. 0. 0. 0. 0. 0. 0. 0. 0. 0. 0. 0.
      0. 0. 0. 0. 0. 0. 0. 0. 0. 0. 0. 0. 0. 0. 0. 0. 0. 0. 0. 0. 0.
      0.00172753772 0.0108834878 0. 0. 0. 0. 0.00604638224 0.0176208857
      0. 0. 0. 0. 0. 0. 0. 0. 0. 0. 0. 0. 0. 0. 0. 0. 0. 0. 0. 0. 0. 0.
      0. 0. 0. 0. 0. 0. 0.00276406039 0.0171026234 0. 0. 0. 0.
      0.00397333689 0.00190029154 0. 0. 0. 0. 0. 0. 0. 0. 0. 0. 0. 0. 0.
      0. 0. 0. 0. 0. 0. 0. 0. 0. 0. 0. 0. 0. 0. 0.000518261339
      0.0013820302 0.00155478402 0. 0. 0. 0.000172753775 0.000345507549
      0. 0. 0. 0. 0. 0. 0.00293681421 0. 0. 0. 0. 0. 0.00397333689 0. 0.
      0. 0. 0. 0.000691015099 0. 0. 0. 0. 0. 0. 0. 0. 0. 0.00570087461
      0.00172753772 0.00691015087 0. 0. 0. 0.00898319669 0.00207304535
      0.0167571157 0. 0. 0. 0. 0.00639188988 0.014511317 0. 0. 0. 0.
      0.0120927645 0.024185529 0. 0. 0. 0. 0. 0.0215942226 0. 0. 0. 0.
      0. 0. 0. 0. 0. 0.296963751 0.531045079 0.273469239 0. 0. 0.
      0.0445704721 0.0625368655 0.121273153 0. 0. 0.000172753775
      0.000172753775 0. 0. 0. 0. 0. 0. 0. 0. 0. 0. 0. 0. 0. 0. 0. 0. 0.
      0. 0. 0. 0. 0. 0. 0.0881044269 0.222852364 0.654909551 0. 0.
      0.000863768859 0.0312684327 0.104170524 0.182600737 0. 0. 0. 0. 0.
      0. 0. 0. 0. 0. 0. 0. 0. 0. 0. 0. 0. 0. 0. 0. 0. 0. 0. 0. 0. 0. 0.
      0. 0. 0.00328232162 0. 0. 0. 0. 0. 0. 0. 0. 0. 0. 0. 0. 0. 0. 0.
      0. 0. 0. 0. 0. 0. 0. 0. 0. 0. 0. 0. 0. 0. 0. 0. 0. 0. 0. 0.
      0.00172753772 0. 0. 0. 0. 0. 0. 0. 0. 0. 0. 0. 0. 0. 0. 0. 0. 0.
      0. 0. 0. 0. 0. 0. 0. 0. 0. 0. 0. 0. 0. 0. 0. 0. 0. 0. 0. 0. 0. 0.
      0. 0. 0. 0. 0. 0. 0. 0. 0. 0. 0. 0. 0. 0. 0. 0. 0. 0. 0. 0. 0. 0.
      0. 0. 0. 0. 0. 0. 0. 0. 0. 0. 0.00259130658 0. 0. 0. 0. 0. 0. 0.
      0. 0. 0. 0. 0. 0. 0. 0. 0. 0. 0. 0. 0. 0. 0. 0. 0. 0. 0. 0. 0. 0.
      0. 0. 0. 0. 0. 0. 0.000172753775 0. 0. 0. 0. 0. 0. 0. 0. 0. 0. 0.
      0. 0. 0. 0. 0. 0. 0. 0. 0. 0. 0. 0. 0. 0. 0. 0. 0. 0. 0.
      0.0776367188</_>
    <_>
      0. 0. 0. 0. 0. 0.00768026384 0. 0. 0. 0. 0. 0. 0. 0. 0. 0. 0. 0.
      0. 0. 0. 0. 0. 0. 0. 0. 0. 0. 0. 0. 0. 0. 0. 0. 0. 0. 0. 0. 0.
      0.000163409873 0.00457547652 0.00620957511 0. 0. 0. 0.000163409873
      0.0137264291 0.0171580371 0. 0. 0. 0. 0. 0. 0. 0. 0. 0. 0. 0. 0.
      0. 0. 0. 0. 0. 0. 0. 0. 0. 0. 0. 0. 0. 0. 0.000817049353
      0.00375842699 0.00882413331 0. 0. 0. 0. 0.00604616525
      0.000490229635 0. 0. 0. 0. 0. 0. 0. 0. 0. 0. 0. 0. 0. 0. 0. 0. 0.
      0. 0. 0. 0. 0. 0. 0. 0. 0. 0.000326819747 0.00147068885
      0.0021243284 0.000653639494 0. 0. 0. 0.000490229635 0.000163409873
      0. 0. 0. 0. 0. 0.000490229635 0.00196091854 0. 0. 0. 0.
      0.000163409873 0.00490229623 0. 0. 0. 0. 0. 0.000817049353 0. 0.
      0. 0. 0. 0. 0. 0. 0.000326819747 0.00964118261 0.00179750856
      0.00392183708 0. 0. 0.000163409873 0.0111118713 0.00130727899
      0.0179750863 0. 0. 0. 0.000163409873 0.00555593567 0.0119289206 0.
      0. 0. 0. 0.0151971178 0.0209164638 0. 0. 0. 0. 0. 0.0205896441 0.
      0. 0. 0. 0. 0. 0. 0. 0.00669980468 0.359174907 0.731259167
      0.271587223 0. 0. 0.00506570609 0.0624225698 0.147559121
      0.0833390355 0. 0. 0.000163409873 0.000163409873 0. 0. 0. 0. 0. 0.
      0. 0. 0. 0. 0. 0. 0. 0. 0. 0. 0. 0. 0. 0. 0. 0. 0.00196091854
      0.0544154868 0.157527119 0.437775046 0. 0. 0.0109484615
      0.0156873483 0.0521277487 0.0684687346 0. 0. 0. 0. 0. 0. 0. 0. 0.
      0. 0. 0. 0. 0. 0. 0. 0. 0. 0. 0. 0. 0. 0. 0. 0. 0. 0. 0. 0.
      0.00245114812 0. 0. 0. 0. 0. 0. 0. 0. 0. 0. 0. 0. 0. 0. 0. 0. 0.
      0. 0. 0. 0. 0. 0. 0. 0. 0. 0. 0. 0. 0. 0. 0. 0. 0. 0.
      0.00179750856 0. 0. 0. 0. 0. 0. 0. 0. 0. 0. 0. 0. 0. 0. 0. 0. 0.
      0. 0. 0. 0. 0. 0. 0. 0. 0. 0. 0. 0. 0. 0. 0. 0. 0. 0.
      0.000163409873 0. 0. 0. 0. 0. 0. 0. 0. 0. 0. 0. 0. 0. 0. 0. 0. 0.
      0. 0. 0. 0. 0. 0. 0. 0. 0. 0. 0. 0. 0. 0. 0. 0. 0. 0.
      0.00277796783 0. 0. 0. 0. 0. 0. 0. 0. 0. 0. 0. 0. 0. 0. 0. 0. 0.
      0. 0. 0. 0. 0. 0. 0. 0. 0. 0. 0. 0. 0. 0. 0. 0. 0. 0. 0. 0. 0. 0.
      0. 0. 0. 0. 0. 0. 0. 0. 0. 0. 0. 0. 0. 0. 0. 0. 0. 0. 0. 0. 0. 0.
      0. 0. 0. 0. 0. 0.081237793</_>
    <_>
      0. 0. 0. 0. 0. 0.00682170922 0. 0. 0. 0. 0. 0. 0. 0. 0. 0. 0. 0.
      0. 0. 0. 0. 0. 0. 0. 0. 0. 0. 0. 0. 0. 0. 0. 0. 0. 0. 0. 0. 0.
      0.00243632472 0.00763381785 0. 0. 0. 0.000487264944 0.0220893454
      0.0173791163 0. 0. 0. 0.00113695161 0.00308601139 0. 0. 0. 0. 0.
      0. 0. 0. 0. 0. 0. 0. 0. 0. 0. 0. 0. 0. 0. 0. 0. 0. 0.
      0.00665928796 0.00471022772 0.00568475807 0. 0. 0.000487264944
      0.00454780646 0.00357327634 0. 0. 0. 0.00162421656 0.00178663817
      0. 0. 0. 0. 0.000162421653 0. 0. 0. 0. 0. 0. 0. 0. 0. 0. 0. 0. 0.
      0. 0. 0. 0. 0. 0.00259874645 0.00146179483 0.000324843306 0. 0. 0.
      0.000162421653 0.000487264944 0. 0. 0. 0. 0. 0. 0.00178663817 0.
      0. 0. 0. 0.00308601139 0.00243632472 0. 0. 0. 0. 0.00178663817
      0.000974529888 0. 0. 0. 0. 0. 0. 0. 0. 0.00243632472 0.0118567804
      0.00308601139 0.00308601139 0. 0. 0.000324843306 0.00877076946
      0.000974529888 0.0177039597 0. 0. 0.000649686612 0.000324843306
      0.00422296301 0.0110446727 0. 0. 0. 0. 0.0165670086 0.0165670086
      0. 0. 0. 0. 0.000649686612 0.0229014531 0. 0. 0. 0. 0. 0. 0. 0.
      0.0103949858 0.362362713 0.745840251 0.298368573 0. 0.
      0.0191657543 0.0717903674 0.166319773 0.0838095695 0. 0.
      0.000162421653 0.000324843306 0. 0. 0. 0. 0. 0. 0. 0. 0. 0. 0. 0.
      0. 0. 0. 0. 0. 0. 0. 0. 0. 0. 0.00129937322 0.0341085456
      0.133835435 0.396633685 0. 0. 0.00617202278 0.0142931053
      0.0454780646 0.0388187766 0. 0. 0. 0. 0. 0. 0. 0. 0. 0. 0. 0. 0.
      0. 0. 0. 0. 0. 0. 0. 0. 0. 0. 0. 0. 0. 0. 0. 0. 0.00227390323 0.
      0. 0. 0. 0. 0. 0. 0. 0. 0. 0. 0. 0. 0. 0. 0. 0. 0. 0. 0. 0. 0. 0.
      0. 0. 0. 0. 0. 0. 0. 0. 0. 0. 0. 0. 0.00146179483 0. 0. 0. 0. 0.
      0. 0. 0. 0. 0. 0. 0. 0. 0. 0. 0. 0. 0. 0. 0. 0. 0. 0. 0. 0. 0. 0.
      0. 0. 0. 0. 0. 0. 0. 0. 0. 0. 0. 0. 0. 0. 0. 0. 0. 0. 0. 0. 0. 0.
      0. 0. 0. 0. 0. 0. 0. 0. 0. 0. 0. 0. 0. 0. 0. 0. 0. 0. 0. 0. 0. 0.
      0.00162421656 0. 0. 0. 0. 0. 0. 0. 0. 0. 0. 0. 0. 0. 0. 0. 0. 0.
      0. 0. 0. 0. 0. 0. 0. 0. 0. 0. 0. 0. 0. 0. 0. 0. 0. 0. 0. 0. 0. 0.
      0. 0. 0. 0. 0. 0. 0. 0. 0. 0. 0. 0. 0. 0. 0. 0. 0. 0. 0. 0. 0. 0.
      0. 0. 0. 0. 0. 0.0865478516</_>
    <_>
      0. 0.000202702038 0. 0. 0. 0. 0.000202702038 0.00283782859 0. 0.
      0. 0. 0. 0.00729727326 0. 0. 0. 0. 0. 0.00222972245 0. 0. 0. 0. 0.
      0. 0. 0. 0. 0. 0. 0. 0. 0. 0. 0. 0.000405404076 0.00121621229
      0.000608106144 0.000608106144 0. 0. 0.000810808153 0.0346620493
      0.0480403826 0.00912159216 0. 0. 0.00121621229 0.13135092
      0.0397295989 0. 0. 0. 0.000202702038 0.0531079322 0.000202702038
      0. 0. 0. 0. 0. 0. 0. 0. 0. 0. 0. 0. 0. 0. 0. 0.00202702032
      0.0123648243 0.0139864404 0.00263512647 0. 0. 0.00182431831
      0.0516890213 0.0312161148 0.00405404065 0. 0. 0.000202702038
      0.00709457137 0.00506755104 0. 0. 0. 0. 0.00486484915
      0.00101351016 0. 0. 0. 0. 0.000810808153 0. 0. 0. 0. 0. 0. 0. 0.
      0. 0. 0.00283782859 0.0188512895 0.0107432082 0.00101351016 0. 0.
      0.00243242458 0.0184458848 0.000608106144 0.000202702038 0. 0. 0.
      0.000405404076 0.000810808153 0.00243242458 0. 0. 0. 0.00162161631
      0.00283782859 0.00527025294 0.00527025294 0. 0. 0.00263512647
      0.00486484915 0.0081080813 0.00182431831 0. 0. 0.000405404076
      0.000608106144 0.000202702038 0.00182431831 0.000608106144
      0.00364863663 0.0117567182 0.0427701287 0.00770267751 0. 0.
      0.00587835908 0.0172296725 0.00547295483 0.00364863663
      0.00304053049 0.00101351016 0. 0.00222972245 0.00425674301
      0.00385133876 0.00851348601 0.000810808153 0. 0.00222972245
      0.0014189143 0.00851348601 0.0162161626 0.00202702032 0.
      0.00202702032 0.00222972245 0. 0.00222972245 0.0081080813 0. 0.
      0.00101351016 0.00425674301 0.00364863663 0.0166215673
      0.00527025294 0.0129729304 0.208377689 0.499255121 0.191756129
      0.0241215434 0.0182431843 0.0581754856 0.289863914 0.7139166
      0.111486122 0.000405404076 0.00486484915 0.0287836902
      0.000405404076 0.000810808153 0. 0. 0. 0.000405404076 0. 0. 0. 0.
      0. 0. 0. 0. 0. 0. 0. 0. 0. 0. 0. 0. 0.00324323261 0.00243242458
      0.0137837389 0.0352701545 0.0847294554 0.0987158939 0.00729727326
      0.00709457137 0.0281755831 0.0715538189 0.0304053053
      0.000405404076 0.00101351016 0.00648646522 0. 0. 0. 0. 0. 0. 0. 0.
      0. 0. 0. 0. 0. 0. 0. 0. 0. 0. 0. 0. 0. 0. 0.000608106144
      0.000405404076 0. 0. 0. 0. 0. 0. 0. 0. 0. 0. 0. 0. 0. 0. 0. 0. 0.
      0. 0. 0. 0. 0. 0. 0. 0. 0. 0. 0. 0. 0. 0. 0. 0. 0. 0.000202702038
      0. 0. 0. 0. 0. 0. 0. 0. 0. 0. 0. 0. 0. 0. 0. 0. 0. 0. 0. 0. 0. 0.
      0. 0. 0. 0. 0. 0. 0. 0. 0. 0. 0. 0. 0. 0. 0. 0. 0. 0. 0. 0. 0. 0.
      0. 0. 0. 0. 0. 0. 0. 0. 0. 0. 0. 0. 0. 0. 0. 0. 0. 0. 0. 0. 0. 0.
      0. 0. 0. 0. 0. 0. 0. 0. 0. 0. 0. 0. 0. 0. 0. 0. 0. 0. 0. 0. 0. 0.
      0. 0. 0. 0. 0. 0. 0. 0. 0. 0. 0. 0. 0. 0. 0. 0. 0. 0. 0. 0. 0. 0.
      0. 0. 0. 0. 0. 0. 0. 0. 0. 0. 0. 0. 0. 0. 0. 0. 0. 0. 0. 0. 0. 0.
      0. 0. 0. 0. 0. 0. 0. 0. 0. 0. 0. 0.0774536133</_>
    <_>
      0.000528091856 0. 0. 0. 0. 0. 0.00211236742 0.000704122474
      0.000176030619 0. 0. 0. 0.00123221427 0.00176030619 0. 0. 0. 0.
      0.00440076552 0.00264045922 0. 0. 0. 0. 0.00123221427
      0.000176030619 0. 0. 0. 0. 0. 0. 0. 0. 0. 0. 0. 0.000352061237 0.
      0. 0. 0. 0.00316855125 0.0285169594 0.00440076552 0. 0. 0.
      0.0177790932 0.0459439903 0.000704122474 0. 0. 0. 0.0603785031
      0.0345019996 0. 0. 0. 0. 0.0249963477 0.00704122474 0. 0. 0. 0.
      0.00140824495 0. 0. 0. 0. 0. 0.00316855125 0.0086254999
      0.000528091856 0. 0. 0. 0.0309813879 0.0271087158 0.0022883981 0.
      0. 0. 0.0132022966 0.00774534699 0.000880153093 0. 0. 0.
      0.00598504115 0.00176030619 0. 0. 0. 0. 0.00686519407
      0.00105618371 0. 0. 0. 0. 0.000528091856 0. 0. 0. 0. 0.
      0.0033445817 0.0091535924 0.000704122474 0. 0. 0. 0.0191873368
      0.00158427563 0.000352061237 0. 0. 0. 0.00475282688 0.000176030619
      0.000176030619 0. 0. 0. 0. 0.000176030619 0.00123221427 0. 0. 0.
      0.000352061237 0. 0.00968168397 0.000880153093 0. 0. 0. 0.
      0.00193633675 0.00774534699 0. 0. 0.00299252057 0.0285169594
      0.00827343948 0.000176030619 0. 0. 0.017427031 0.0147865722
      0.00211236742 0.00404870417 0.000704122474 0. 0.0100337453
      0.00651313271 0.00792137813 0.00827343948 0. 0. 0.00528091844
      0.00211236742 0.00950565375 0.00968168397 0. 0. 0.000176030619
      0.000880153093 0.0130262654 0.00580901047 0. 0. 0. 0.000176030619
      0.00651313271 0.0221798588 0. 0. 0.00316855125 0.0799179003
      0.271263182 0.0424233787 0.00880153105 0. 0.0269326847 0.315270841
      0.87064743 0.061258655 0. 0. 0.0462960526 0.0202435218 0. 0. 0. 0.
      0.0209476445 0.000176030619 0. 0. 0. 0. 0.00105618371 0. 0. 0. 0.
      0. 0. 0. 0. 0. 0. 0. 0.00158427563 0.0241161939 0.0658354536
      0.100161418 0.0369664282 0. 0.0119700823 0.0857269093 0.117588453
      0.0302772671 0. 0. 0.0156667251 0.00985771418 0. 0. 0. 0.
      0.0105618369 0.000176030619 0. 0. 0. 0. 0.000704122474 0. 0. 0. 0.
      0. 0. 0. 0. 0. 0. 0. 0.000528091856 0.000176030619 0. 0. 0. 0.
      0.000176030619 0. 0. 0. 0. 0. 0. 0. 0. 0. 0. 0. 0. 0. 0. 0. 0. 0.
      0. 0. 0. 0. 0. 0. 0. 0. 0. 0. 0. 0. 0. 0. 0. 0. 0. 0. 0. 0. 0. 0.
      0. 0. 0. 0. 0. 0. 0. 0. 0. 0. 0. 0. 0. 0. 0. 0. 0. 0. 0. 0. 0. 0.
      0. 0. 0. 0. 0.000176030619 0. 0. 0. 0. 0. 0. 0. 0. 0. 0. 0. 0. 0.
      0. 0. 0. 0. 0. 0. 0. 0. 0. 0. 0. 0. 0. 0. 0. 0. 0. 0. 0. 0. 0. 0.
      0. 0. 0. 0. 0. 0. 0. 0. 0. 0. 0. 0. 0. 0. 0. 0. 0. 0. 0. 0. 0. 0.
      0. 0. 0. 0. 0. 0. 0. 0. 0. 0. 0. 0. 0. 0. 0. 0. 0. 0. 0. 0. 0. 0.
      0. 0. 0. 0. 0. 0. 0. 0. 0. 0. 0. 0. 0. 0. 0. 0. 0. 0. 0. 0. 0. 0.
      0. 0. 0. 0. 0. 0. 0.0704956055</_>
    <_>
      0. 0.00112096732 0.000224193456 0. 0. 0.00269032153 0.
      0.000896773825 0.0035870953 0. 0. 0. 0. 0.000448386912
      0.0100887055 0. 0. 0. 0. 0. 0.000224193456 0. 0. 0. 0. 0. 0. 0. 0.
      0. 0. 0. 0. 0. 0. 0. 0. 0.00134516077 0.00224193465 0.000448386912
      0.000896773825 0.000224193456 0. 0.0127790272 0.0459596589
      0.0403548218 0.00560483662 0. 0. 0.0522370748 0.12397898
      0.00829515792 0. 0. 0. 0.0044838693 0.0127790272 0. 0. 0. 0. 0. 0.
      0. 0. 0. 0. 0. 0. 0. 0. 0. 0. 0.013451607 0.00919193216
      0.0143483812 0.00179354765 0.00201774109 0. 0.0300419237
      0.0197290238 0.0125548337 0.00224193465 0. 0. 0.00627741683
      0.00246612797 0.00381128886 0. 0. 0. 0.00313870842 0.00425967574
      0. 0. 0. 0. 0.000224193456 0. 0. 0. 0. 0. 0. 0. 0. 0. 0. 0.
      0.0197290238 0.00313870842 0.0125548337 0.00156935421
      0.00201774109 0. 0.0114338659 0.00269032153 0.000224193456
      0.000448386912 0. 0. 0. 0. 0. 0. 0. 0. 0.000448386912 0. 0.
      0.00336290174 0.00291451486 0. 0. 0. 0.000672580383 0.0125548337
      0.00224193465 0. 0. 0. 0. 0.00762257772 0. 0. 0.0165903158
      0.00515644951 0.0414757878 0.00784677081 0.00560483662 0.
      0.0163661223 0.00246612797 0.00762257772 0.000896773825
      0.0174870901 0. 0.0044838693 0.00246612797 0.00470806239
      0.000672580383 0.00964031834 0. 0. 0.000896773825 0.000448386912
      0.0233161189 0.010312899 0. 0. 0.000224193456 0. 0.0089677386
      0.0282483753 0. 0. 0. 0. 0.0044838693 0.000896773825 0.
      0.0215225723 0.025782248 0.291675687 0.496588498 0.421259493 0.
      0.0930402875 0.0703967437 0.244370863 0.517438471 0.255132139 0.
      0.0161419287 0.00694999704 0.000224193456 0. 0. 0. 0. 0. 0. 0. 0.
      0. 0. 0. 0. 0. 0. 0. 0. 0. 0. 0. 0. 0. 0.0089677386 0.00605322327
      0.0251096673 0.0399064347 0.216346681 0. 0.0163661223 0.0201774109
      0.0295935366 0.0439419188 0.027351601 0. 0.00403548218
      0.00425967574 0. 0. 0. 0. 0. 0. 0. 0. 0. 0. 0. 0. 0. 0. 0. 0. 0.
      0. 0. 0. 0. 0. 0.000224193456 0. 0. 0. 0.0035870953 0. 0. 0. 0. 0.
      0. 0. 0. 0. 0. 0. 0. 0. 0. 0. 0. 0. 0. 0. 0. 0. 0. 0. 0. 0. 0. 0.
      0. 0. 0. 0. 0.000224193456 0. 0. 0. 0.00269032153 0. 0. 0. 0. 0.
      0. 0. 0. 0. 0. 0. 0. 0. 0. 0. 0. 0. 0. 0. 0. 0. 0. 0. 0. 0. 0. 0.
      0. 0. 0. 0. 0. 0. 0. 0. 0. 0. 0. 0. 0. 0. 0. 0. 0. 0. 0. 0. 0. 0.
      0. 0. 0. 0. 0. 0. 0. 0. 0. 0. 0. 0. 0. 0. 0. 0. 0. 0. 0. 0. 0. 0.
      0.00224193465 0. 0. 0. 0. 0. 0. 0. 0. 0. 0. 0. 0. 0. 0. 0. 0. 0.
      0. 0. 0. 0. 0. 0. 0. 0. 0. 0. 0. 0. 0. 0. 0. 0. 0. 0.
      0.000224193456 0. 0. 0. 0. 0. 0. 0. 0. 0. 0. 0. 0. 0. 0. 0. 0. 0.
      0. 0. 0. 0. 0. 0. 0. 0. 0. 0. 0. 0. 0. 0.0917358398</_>
    <_>
      0. 0.000518814253 0.00172938092 0. 0. 0.00103762851 0. 0.
      0.0105492231 0. 0.000172938089 0. 0. 0. 0.00155644282 0. 0. 0. 0.
      0. 0. 0. 0. 0. 0. 0. 0. 0. 0. 0. 0. 0. 0. 0. 0. 0. 0.
      0.00172938092 0.00795515254 0.00311288564 0.000864690461
      0.000345876178 0. 0.00518814288 0.125207171 0.0389110707
      0.00345876184 0. 0. 0.000518814253 0.039775759 0.00190231903 0. 0.
      0. 0. 0. 0. 0. 0. 0. 0. 0. 0. 0. 0. 0. 0. 0. 0. 0. 0. 0.
      0.0107221613 0.0326852985 0.0169479325 0.00172938092
      0.000518814253 0. 0.00293994742 0.0157373659 0.0136621092
      0.00138350471 0. 0. 0.000518814253 0.00639870949 0.00190231903 0.
      0. 0. 0. 0.000172938089 0. 0. 0. 0. 0. 0. 0. 0. 0. 0. 0. 0. 0. 0.
      0. 0. 0.0122786043 0.0157373659 0.00933865644 0.000864690461
      0.000345876178 0. 0.000518814253 0.00207525701 0.000172938089
      0.000345876178 0. 0. 0. 0.000518814253 0. 0.000172938089 0. 0. 0.
      0. 0. 0.00864690449 0.00259407144 0. 0. 0. 0. 0.00968453288
